{"learner":{"attributes":{"scikit_learn":"{\"_estimator_type\": \"classifier\"}"},"feature_names":["RSI","MACD","MACD_Signal","SMA_20","EMA_20","Volatility"],"feature_types":["float","float","float","float","float","float"],"gradient_booster":{"model":{"gbtree_model_param":{"num_parallel_tree":"1","num_trees":"150"},"iteration_indptr":[0,1,2,3,4,5,6,7,8,9,10,11,12,13,14,15,16,17,18,19,20,21,22,23,24,25,26,27,28,29,30,31,32,33,34,35,36,37,38,39,40,41,42,43,44,45,46,47,48,49,50,51,52,53,54,55,56,57,58,59,60,61,62,63,64,65,66,67,68,69,70,71,72,73,74,75,76,77,78,79,80,81,82,83,84,85,86,87,88,89,90,91,92,93,94,95,96,97,98,99,100,101,102,103,104,105,106,107,108,109,110,111,112,113,114,115,116,117,118,119,120,121,122,123,124,125,126,127,128,129,130,131,132,133,134,135,136,137,138,139,140,141,142,143,144,145,146,147,148,149,150],"tree_info":[0,0,0,0,0,0,0,0,0,0,0,0,0,0,0,0,0,0,0,0,0,0,0,0,0,0,0,0,0,0,0,0,0,0,0,0,0,0,0,0,0,0,0,0,0,0,0,0,0,0,0,0,0,0,0,0,0,0,0,0,0,0,0,0,0,0,0,0,0,0,0,0,0,0,0,0,0,0,0,0,0,0,0,0,0,0,0,0,0,0,0,0,0,0,0,0,0,0,0,0,0,0,0,0,0,0,0,0,0,0,0,0,0,0,0,0,0,0,0,0,0,0,0,0,0,0,0,0,0,0,0,0,0,0,0,0,0,0,0,0,0,0,0,0,0,0,0,0,0,0],"trees":[{"base_weights":[1.8710882E-8,2.2766991E-1,-1.116286E-1,8.719272E-2,1.127158E-2,-5.2661445E-2,-2.120584E-3],"categories":[],"categories_nodes":[],"categories_segments":[],"categories_sizes":[],"default_left":[0,0,0,0,0,0,0],"id":0,"left_children":[1,3,5,-1,-1,-1,-1],"loss_changes":[6.826E0,6.446011E0,6.7515283E0,0E0,0E0,0E0,0E0],"parents":[2147483647,0,0,1,1,2,2],"right_children":[2,4,6,-1,-1,-1,-1],"split_conditions":[1.4195037E3,1.3888091E1,1.4547523E3,8.719272E-2,1.127158E-2,-5.2661445E-2,-2.120584E-3],"split_indices":[3,5,3,0,0,0,0],"split_type":[0,0,0,0,0,0,0],"sum_hessian":[2.665871E2,8.736468E1,1.792224E2,1.2231055E1,7.513363E1,3.1201672E1,1.4802074E2],"tree_param":{"num_deleted":"0","num_feature":"6","num_nodes":"7","size_leaf_vector":"1"}},{"base_weights":[1.7837771E-4,2.686935E-1,-8.272404E-2,1.1352841E-1,1.6305968E-2,-9.1402483E-4,-4.6703648E-2],"categories":[],"categories_nodes":[],"categories_segments":[],"categories_sizes":[],"default_left":[0,0,0,0,0,0,0],"id":1,"left_children":[1,3,5,-1,-1,-1,-1],"loss_changes":[5.9778533E0,5.614093E0,5.798359E0,0E0,0E0,0E0,0E0],"parents":[2147483647,0,0,1,1,2,2],"right_children":[2,4,6,-1,-1,-1,-1],"split_conditions":[1.3999902E3,1.4275734E1,2.1639118E1,1.1352841E-1,1.6305968E-2,-9.1402483E-4,-4.6703648E-2],"split_indices":[4,5,2,0,0,0,0],"split_type":[0,0,0,0,0,0,0],"sum_hessian":[2.6654166E2,6.235078E1,2.0419089E2,5.7154512E0,5.6635326E1,1.7223674E2,3.1954155E1],"tree_param":{"num_deleted":"0","num_feature":"6","num_nodes":"7","size_leaf_vector":"1"}},{"base_weights":[4.861808E-4,2.4802318E-2,-8.463173E-1,3.914329E-2,-2.20881E-3,-3.0127434E-2,-1.1423939E-1],"categories":[],"categories_nodes":[],"categories_segments":[],"categories_sizes":[],"default_left":[0,0,0,0,0,0,0],"id":2,"left_children":[1,3,5,-1,-1,-1,-1],"loss_changes":[5.5285287E0,4.495249E0,8.652687E-1,0E0,0E0,0E0,0E0],"parents":[2147483647,0,0,1,1,2,2],"right_children":[2,4,6,-1,-1,-1,-1],"split_conditions":[1.7496766E3,1.1186909E1,4.6573776E1,3.914329E-2,-2.20881E-3,-3.0127434E-2,-1.1423939E-1],"split_indices":[3,5,0,0,0,0,0],"split_type":[0,0,0,0,0,0,0],"sum_hessian":[2.6647324E2,2.599786E2,6.494629E0,2.8646584E1,2.3133203E2,2.9963143E0,3.4983146E0],"tree_param":{"num_deleted":"0","num_feature":"6","num_nodes":"7","size_leaf_vector":"1"}},{"base_weights":[4.090573E-5,2.4496926E-1,-7.5435676E-2,1.03843704E-1,1.4931186E-2,-3.0347323E-3,-6.455761E-2],"categories":[],"categories_nodes":[],"categories_segments":[],"categories_sizes":[],"default_left":[0,0,0,0,0,0,0],"id":3,"left_children":[1,3,5,-1,-1,-1,-1],"loss_changes":[4.9621778E0,4.64429E0,5.255233E0,0E0,0E0,0E0,0E0],"parents":[2147483647,0,0,1,1,2,2],"right_children":[2,4,6,-1,-1,-1,-1],"split_conditions":[1.3999902E3,1.4275734E1,4.5786682E1,1.03843704E-1,1.4931186E-2,-3.0347323E-3,-6.455761E-2],"split_indices":[4,5,5,0,0,0,0],"split_type":[0,0,0,0,0,0,0],"sum_hessian":[2.664242E2,6.223154E1,2.0419264E2,5.6348968E0,5.6596645E1,1.90204E2,1.3988652E1],"tree_param":{"num_deleted":"0","num_feature":"6","num_nodes":"7","size_leaf_vector":"1"}},{"base_weights":[2.4887954E-4,2.256129E-2,-7.763876E-1,3.6663685E-2,-1.8659661E-3,-2.7236992E-2,-1.0520976E-1],"categories":[],"categories_nodes":[],"categories_segments":[],"categories_sizes":[],"default_left":[0,0,0,0,0,0,0],"id":4,"left_children":[1,3,5,-1,-1,-1,-1],"loss_changes":[4.649589E0,3.7059991E0,7.5474167E-1,0E0,0E0,0E0,0E0],"parents":[2147483647,0,0,1,1,2,2],"right_children":[2,4,6,-1,-1,-1,-1],"split_conditions":[1.7496766E3,3.7200314E1,4.6573776E1,3.6663685E-2,-1.8659661E-3,-2.7236992E-2,-1.0520976E-1],"split_indices":[3,0,0,0,0,0,0],"split_type":[0,0,0,0,0,0,0],"sum_hessian":[2.663075E2,2.598141E2,6.49339E0,2.6951628E1,2.3286247E2,2.9989605E0,3.4944296E0],"tree_param":{"num_deleted":"0","num_feature":"6","num_nodes":"7","size_leaf_vector":"1"}},{"base_weights":[-1.4271746E-4,2.2251305E-1,-6.860149E-2,9.215277E-2,1.2894012E-2,-7.829008E-2,-3.4772467E-3],"categories":[],"categories_nodes":[],"categories_segments":[],"categories_sizes":[],"default_left":[0,0,0,0,0,0,0],"id":5,"left_children":[1,3,5,-1,-1,-1,-1],"loss_changes":[4.089057E0,4.0074973E0,4.930662E0,0E0,0E0,0E0,0E0],"parents":[2147483647,0,0,1,1,2,2],"right_children":[2,4,6,-1,-1,-1,-1],"split_conditions":[1.3999902E3,1.4339131E1,1.4007446E3,9.215277E-2,1.2894012E-2,-7.829008E-2,-3.4772467E-3],"split_indices":[4,5,3,0,0,0,0],"split_type":[0,0,0,0,0,0,0],"sum_hessian":[2.6626114E2,6.2085033E1,2.0417609E2,6.2851396E0,5.5799896E1,8.231216E0,1.9594487E2],"tree_param":{"num_deleted":"0","num_feature":"6","num_nodes":"7","size_leaf_vector":"1"}},{"base_weights":[-1.8389273E-5,2.0493882E-2,-7.158822E-1,3.4613606E-2,-2.0965037E-3,-2.4929143E-2,-9.7324915E-2],"categories":[],"categories_nodes":[],"categories_segments":[],"categories_sizes":[],"default_left":[0,0,0,0,0,0,0],"id":6,"left_children":[1,3,5,-1,-1,-1,-1],"loss_changes":[3.9373176E0,3.5264816E0,6.543088E-1,0E0,0E0,0E0,0E0],"parents":[2147483647,0,0,1,1,2,2],"right_children":[2,4,6,-1,-1,-1,-1],"split_conditions":[1.7496766E3,1.1186909E1,4.6573776E1,3.4613606E-2,-2.0965037E-3,-2.4929143E-2,-9.7324915E-2],"split_indices":[3,5,0,0,0,0,0],"split_type":[0,0,0,0,0,0,0],"sum_hessian":[2.6613757E2,2.5966846E2,6.4691353E0,2.8495956E1,2.3117249E2,2.9996228E0,3.4695125E0],"tree_param":{"num_deleted":"0","num_feature":"6","num_nodes":"7","size_leaf_vector":"1"}},{"base_weights":[-3.541444E-4,1.6836138E-1,-8.2587525E-2,1.1687662E-1,9.774648E-3,-9.054331E-2,-4.2872555E-3],"categories":[],"categories_nodes":[],"categories_segments":[],"categories_sizes":[],"default_left":[0,0,0,0,0,0,0],"id":7,"left_children":[1,3,5,-1,-1,-1,-1],"loss_changes":[3.7187572E0,6.090631E0,5.8500247E0,0E0,0E0,0E0,0E0],"parents":[2147483647,0,0,1,1,2,2],"right_children":[2,4,6,-1,-1,-1,-1],"split_conditions":[1.4195037E3,3.6907265E1,1.4259265E3,1.1687662E-1,9.774648E-3,-9.054331E-2,-4.2872555E-3],"split_indices":[3,0,3,0,0,0,0],"split_type":[0,0,0,0,0,0,0],"sum_hessian":[2.6603473E2,8.683363E1,1.7920108E2,4.699818E0,8.213382E1,7.2473154E0,1.7195377E2],"tree_param":{"num_deleted":"0","num_feature":"6","num_nodes":"7","size_leaf_vector":"1"}},{"base_weights":[-1.8765299E-4,1.865222E-2,-6.609289E-1,3.1479266E-2,-1.8957416E-3,-2.2702899E-2,-9.3787305E-2],"categories":[],"categories_nodes":[],"categories_segments":[],"categories_sizes":[],"default_left":[0,0,0,0,0,0,0],"id":8,"left_children":[1,3,5,-1,-1,-1,-1],"loss_changes":[3.334984E0,2.9072332E0,6.7956376E-1,0E0,0E0,0E0,0E0],"parents":[2147483647,0,0,1,1,2,2],"right_children":[2,4,6,-1,-1,-1,-1],"split_conditions":[1.7496766E3,1.1186909E1,3.1428522E1,3.1479266E-2,-1.8957416E-3,-2.2702899E-2,-9.3787305E-2],"split_indices":[3,5,5,0,0,0,0],"split_type":[0,0,0,0,0,0,0],"sum_hessian":[2.6591687E2,2.5948975E2,6.427123E0,2.8410875E1,2.3107887E2,3.2129798E0,3.214143E0],"tree_param":{"num_deleted":"0","num_feature":"6","num_nodes":"7","size_leaf_vector":"1"}},{"base_weights":[-4.95089E-4,1.527607E-1,-7.5103134E-2,1.08636655E-1,8.754532E-3,-4.3367296E-2,3.0091841E-4],"categories":[],"categories_nodes":[],"categories_segments":[],"categories_sizes":[],"default_left":[0,0,0,0,0,0,0],"id":9,"left_children":[1,3,5,-1,-1,-1,-1],"loss_changes":[3.0621731E0,5.2438507E0,5.046189E0,0E0,0E0,0E0,0E0],"parents":[2147483647,0,0,1,1,2,2],"right_children":[2,4,6,-1,-1,-1,-1],"split_conditions":[1.4195037E3,3.6907265E1,1.4547523E3,1.08636655E-1,8.754532E-3,-4.3367296E-2,3.0091841E-4],"split_indices":[3,0,3,0,0,0,0],"split_type":[0,0,0,0,0,0,0],"sum_hessian":[2.6580685E2,8.6688515E1,1.7911835E2,4.637741E0,8.205077E1,3.122589E1,1.4789246E2],"tree_param":{"num_deleted":"0","num_feature":"6","num_nodes":"7","size_leaf_vector":"1"}},{"base_weights":[-1.5144415E-4,6.436138E-2,-1.6899909E-1,-1.8305952E-3,3.2394983E-2,-5.3083237E-2,4.601998E-3],"categories":[],"categories_nodes":[],"categories_segments":[],"categories_sizes":[],"default_left":[0,0,0,0,0,0,0],"id":10,"left_children":[1,3,5,-1,-1,-1,-1],"loss_changes":[2.9153526E0,4.1615977E0,5.7808533E0,0E0,0E0,0E0,0E0],"parents":[2147483647,0,0,1,1,2,2],"right_children":[2,4,6,-1,-1,-1,-1],"split_conditions":[1.6335E1,5.5551796E1,6.1088696E1,-1.8305952E-3,3.2394983E-2,-5.3083237E-2,4.601998E-3],"split_indices":[1,0,0,0,0,0,0],"split_type":[0,0,0,0,0,0,0],"sum_hessian":[2.656408E2,1.926518E2,7.298902E1,1.468243E2,4.5827503E1,2.6658848E1,4.6330173E1],"tree_param":{"num_deleted":"0","num_feature":"6","num_nodes":"7","size_leaf_vector":"1"}},{"base_weights":[-1.9742872E-4,4.770734E-1,-2.3314102E-2,9.4788305E-2,-5.6266755E-2,2.9722247E-3,-3.2407552E-2],"categories":[],"categories_nodes":[],"categories_segments":[],"categories_sizes":[],"default_left":[0,0,0,0,0,0,0],"id":11,"left_children":[1,3,5,-1,-1,-1,-1],"loss_changes":[2.952368E0,6.584944E0,4.0808153E0,0E0,0E0,0E0,0E0],"parents":[2147483647,0,0,1,1,2,2],"right_children":[2,4,6,-1,-1,-1,-1],"split_conditions":[1.2921715E3,6.836515E1,2.1639118E1,9.4788305E-2,-5.6266755E-2,2.9722247E-3,-3.2407552E-2],"split_indices":[4,0,2,0,0,0,0],"split_type":[0,0,0,0,0,0,0],"sum_hessian":[2.655883E2,1.1362315E1,2.5422597E2,7.8817105E0,3.4806046E0,2.168821E2,3.734387E1],"tree_param":{"num_deleted":"0","num_feature":"6","num_nodes":"7","size_leaf_vector":"1"}},{"base_weights":[-1.2823915E-4,1.6817775E-2,-5.983002E-1,-6.46549E-2,3.2951303E-3,-1.8995894E-2,-8.6515404E-2],"categories":[],"categories_nodes":[],"categories_segments":[],"categories_sizes":[],"default_left":[0,0,0,0,0,0,0],"id":12,"left_children":[1,3,5,-1,-1,-1,-1],"loss_changes":[2.7111013E0,2.804958E0,6.385491E-1,0E0,0E0,0E0,0E0],"parents":[2147483647,0,0,1,1,2,2],"right_children":[2,4,6,-1,-1,-1,-1],"split_conditions":[1.7496766E3,-3.539669E1,3.1428522E1,-6.46549E-2,3.2951303E-3,-1.8995894E-2,-8.6515404E-2],"split_indices":[3,2,5,0,0,0,0],"split_type":[0,0,0,0,0,0,0],"sum_hessian":[2.6546323E2,2.5909503E2,6.3681912E0,5.223989E0,2.5387103E2,3.193431E0,3.1747603E0],"tree_param":{"num_deleted":"0","num_feature":"6","num_nodes":"7","size_leaf_vector":"1"}},{"base_weights":[-7.469107E-4,4.3268213E-1,-2.160887E-2,8.7043315E-2,-5.2013364E-2,-6.0120564E-2,2.807295E-4],"categories":[],"categories_nodes":[],"categories_segments":[],"categories_sizes":[],"default_left":[0,0,0,0,0,0,0],"id":13,"left_children":[1,3,5,-1,-1,-1,-1],"loss_changes":[2.4180844E0,5.5749626E0,3.6118572E0,0E0,0E0,0E0,0E0],"parents":[2147483647,0,0,1,1,2,2],"right_children":[2,4,6,-1,-1,-1,-1],"split_conditions":[1.2921715E3,6.836515E1,1.3116691E3,8.7043315E-2,-5.2013364E-2,-6.0120564E-2,2.807295E-4],"split_indices":[4,0,3,0,0,0,0],"split_type":[0,0,0,0,0,0,0],"sum_hessian":[2.6538873E2,1.1280673E1,2.5410805E2,7.7887564E0,3.491917E0,9.316943E0,2.447911E2],"tree_param":{"num_deleted":"0","num_feature":"6","num_nodes":"7","size_leaf_vector":"1"}},{"base_weights":[-7.4069586E-4,1.4919704E-2,-5.5699426E-1,3.1200582E-2,-2.047083E-3,-1.3891808E-2,-8.1185125E-2],"categories":[],"categories_nodes":[],"categories_segments":[],"categories_sizes":[],"default_left":[0,0,0,0,0,0,0],"id":14,"left_children":[1,3,5,-1,-1,-1,-1],"loss_changes":[2.3284135E0,2.740226E0,6.670606E-1,0E0,0E0,0E0,0E0],"parents":[2147483647,0,0,1,1,2,2],"right_children":[2,4,6,-1,-1,-1,-1],"split_conditions":[1.7496766E3,3.7200314E1,4.6573776E1,3.1200582E-2,-2.047083E-3,-1.3891808E-2,-8.1185125E-2],"split_indices":[3,0,0,0,0,0,0],"split_type":[0,0,0,0,0,0,0],"sum_hessian":[2.653371E2,2.5901804E2,6.3190465E0,2.6739233E1,2.3227881E2,2.9783463E0,3.3407E0],"tree_param":{"num_deleted":"0","num_feature":"6","num_nodes":"7","size_leaf_vector":"1"}},{"base_weights":[-9.2045584E-4,-6.086933E-1,1.3591559E-2,7.7117234E-3,-1.3744591E-1,8.103425E-2,-9.7568287E-4],"categories":[],"categories_nodes":[],"categories_segments":[],"categories_sizes":[],"default_left":[0,0,0,0,0,0,0],"id":15,"left_children":[1,3,5,-1,-1,-1,-1],"loss_changes":[2.3564692E0,3.3781133E0,4.863335E0,0E0,0E0,0E0,0E0],"parents":[2147483647,0,0,1,1,2,2],"right_children":[2,4,6,-1,-1,-1,-1],"split_conditions":[-3.539669E1,1.4691193E3,-3.073734E1,7.7117234E-3,-1.3744591E-1,8.103425E-2,-9.7568287E-4],"split_indices":[2,3,1,0,0,0,0],"split_type":[0,0,0,0,0,0,0],"sum_hessian":[2.6523514E2,5.230586E0,2.6000455E2,3.2337623E0,1.9968239E0,6.442747E0,2.535618E2],"tree_param":{"num_deleted":"0","num_feature":"6","num_nodes":"7","size_leaf_vector":"1"}},{"base_weights":[-1.0078014E-3,1.394934E-1,-6.1197758E-2,6.6165677E-3,1.1768555E-1,-1.3160508E-3,-6.92856E-2],"categories":[],"categories_nodes":[],"categories_segments":[],"categories_sizes":[],"default_left":[0,0,0,0,0,0,0],"id":16,"left_children":[1,3,5,-1,-1,-1,-1],"loss_changes":[2.259676E0,6.0181785E0,5.666683E0,0E0,0E0,0E0,0E0],"parents":[2147483647,0,0,1,1,2,2],"right_children":[2,4,6,-1,-1,-1,-1],"split_conditions":[1.4127661E3,1.4085878E3,4.5786682E1,6.6165677E-3,1.1768555E-1,-1.3160508E-3,-6.92856E-2],"split_indices":[4,4,5,0,0,0,0],"split_type":[0,0,0,0,0,0,0],"sum_hessian":[2.65194E2,7.914006E1,1.8605392E2,7.490878E1,4.2312746E0,1.7385332E2,1.2200611E1],"tree_param":{"num_deleted":"0","num_feature":"6","num_nodes":"7","size_leaf_vector":"1"}},{"base_weights":[-7.01278E-4,2.5356907E-1,-3.2608148E-2,5.488121E-2,-3.7046976E-2,-5.497616E-2,-8.7516924E-4],"categories":[],"categories_nodes":[],"categories_segments":[],"categories_sizes":[],"default_left":[0,0,0,0,0,0,0],"id":17,"left_children":[1,3,5,-1,-1,-1,-1],"loss_changes":[2.167068E0,5.6903524E0,2.9229994E0,0E0,0E0,0E0,0E0],"parents":[2147483647,0,0,1,1,2,2],"right_children":[2,4,6,-1,-1,-1,-1],"split_conditions":[1.1186909E1,1.587731E3,1.2076629E1,5.488121E-2,-3.7046976E-2,-5.497616E-2,-8.7516924E-4],"split_indices":[5,3,5,0,0,0,0],"split_type":[0,0,0,0,0,0,0],"sum_hessian":[2.6509238E2,2.8781485E1,2.3631088E2,1.9619652E1,9.161833E0,9.44832E0,2.2686256E2],"tree_param":{"num_deleted":"0","num_feature":"6","num_nodes":"7","size_leaf_vector":"1"}},{"base_weights":[-7.574633E-4,1.6550478E-2,-4.600245E-1,4.8703365E-2,-4.2667953E-4,-1.0174631E-1,1.4966916E-3],"categories":[],"categories_nodes":[],"categories_segments":[],"categories_sizes":[],"default_left":[0,0,0,0,0,0,0],"id":18,"left_children":[1,3,5,-1,-1,-1,-1],"loss_changes":[2.121991E0,2.5221102E0,2.582236E0,0E0,0E0,0E0,0E0],"parents":[2147483647,0,0,1,1,2,2],"right_children":[2,4,6,-1,-1,-1,-1],"split_conditions":[4.1744656E1,1.2962095E3,4.1267902E1,4.8703365E-2,-4.2667953E-4,-1.0174631E-1,1.4966916E-3],"split_indices":[1,4,2,0,0,0,0],"split_type":[0,0,0,0,0,0,0],"sum_hessian":[2.6499396E2,2.5629904E2,8.694923E0,9.910902E0,2.4638814E2,3.4748528E0,5.220071E0],"tree_param":{"num_deleted":"0","num_feature":"6","num_nodes":"7","size_leaf_vector":"1"}},{"base_weights":[-8.7576744E-4,-5.6675494E-1,1.2640541E-2,5.8722864E-3,-1.2622753E-1,7.662574E-2,-9.350179E-4],"categories":[],"categories_nodes":[],"categories_segments":[],"categories_sizes":[],"default_left":[0,0,0,0,0,0,0],"id":19,"left_children":[1,3,5,-1,-1,-1,-1],"loss_changes":[2.0408323E0,2.7819948E0,4.327025E0,0E0,0E0,0E0,0E0],"parents":[2147483647,0,0,1,1,2,2],"right_children":[2,4,6,-1,-1,-1,-1],"split_conditions":[-3.539669E1,1.4691193E3,-3.073734E1,5.8722864E-3,-1.2622753E-1,7.662574E-2,-9.350179E-4],"split_indices":[2,3,1,0,0,0,0],"split_type":[0,0,0,0,0,0,0],"sum_hessian":[2.6488773E2,5.224524E0,2.5966318E2,3.2328284E0,1.9916956E0,6.402611E0,2.5326057E2],"tree_param":{"num_deleted":"0","num_feature":"6","num_nodes":"7","size_leaf_vector":"1"}},{"base_weights":[-9.529903E-4,1.3295617E-2,-5.114676E-1,3.9246288E-4,1.0837281E-1,-1.3210404E-2,-7.7152185E-2],"categories":[],"categories_nodes":[],"categories_segments":[],"categories_sizes":[],"default_left":[0,0,0,0,0,0,0],"id":20,"left_children":[1,3,5,-1,-1,-1,-1],"loss_changes":[1.9403774E0,2.5995262E0,6.1262655E-1,0E0,0E0,0E0,0E0],"parents":[2147483647,0,0,1,1,2,2],"right_children":[2,4,6,-1,-1,-1,-1],"split_conditions":[1.7496766E3,1.730331E3,3.1428522E1,3.9246288E-4,1.0837281E-1,-1.3210404E-2,-7.7152185E-2],"split_indices":[3,4,5,0,0,0,0],"split_type":[0,0,0,0,0,0,0],"sum_hessian":[2.648159E2,2.58573E2,6.2428894E0,2.5732394E2,1.249049E0,3.1523182E0,3.0905714E0],"tree_param":{"num_deleted":"0","num_feature":"6","num_nodes":"7","size_leaf_vector":"1"}},{"base_weights":[-7.9505774E-4,5.1065862E-2,-1.3668306E-1,-2.4678737E-3,2.888386E-2,-7.658492E-2,-2.0300185E-3],"categories":[],"categories_nodes":[],"categories_segments":[],"categories_sizes":[],"default_left":[0,0,0,0,0,0,0],"id":21,"left_children":[1,3,5,-1,-1,-1,-1],"loss_changes":[1.8797635E0,3.4842854E0,5.379431E0,0E0,0E0,0E0,0E0],"parents":[2147483647,0,0,1,1,2,2],"right_children":[2,4,6,-1,-1,-1,-1],"split_conditions":[1.6335E1,5.5551796E1,1.8739668E1,-2.4678737E-3,2.888386E-2,-7.658492E-2,-2.0300185E-3],"split_indices":[1,0,1,0,0,0,0],"split_type":[0,0,0,0,0,0,0],"sum_hessian":[2.647457E2,1.9206815E2,7.267756E1,1.463449E2,4.5723248E1,1.0474103E1,6.2203457E1],"tree_param":{"num_deleted":"0","num_feature":"6","num_nodes":"7","size_leaf_vector":"1"}},{"base_weights":[-9.1026473E-4,3.477387E-2,-1.9984376E-1,3.8725987E-2,-8.9148403E-4,1.945476E-3,-8.0981754E-2],"categories":[],"categories_nodes":[],"categories_segments":[],"categories_sizes":[],"default_left":[0,0,0,0,0,0,0],"id":22,"left_children":[1,3,5,-1,-1,-1,-1],"loss_changes":[1.8927634E0,3.4853284E0,5.4403496E0,0E0,0E0,0E0,0E0],"parents":[2147483647,0,0,1,1,2,2],"right_children":[2,4,6,-1,-1,-1,-1],"split_conditions":[1.61397E3,1.1186909E1,2.1639118E1,3.8725987E-2,-8.9148403E-4,1.945476E-3,-8.0981754E-2],"split_indices":[4,5,2,0,0,0,0],"split_type":[0,0,0,0,0,0,0],"sum_hessian":[2.6465363E2,2.2510085E2,3.9552765E1,2.3956087E1,2.0114476E2,2.980525E1,9.747516E0],"tree_param":{"num_deleted":"0","num_feature":"6","num_nodes":"7","size_leaf_vector":"1"}},{"base_weights":[-9.809958E-4,-5.2938384E-1,1.1616073E-2,5.650887E-3,-1.1861893E-1,7.073588E-2,-8.561125E-4],"categories":[],"categories_nodes":[],"categories_segments":[],"categories_sizes":[],"default_left":[0,0,0,0,0,0,0],"id":23,"left_children":[1,3,5,-1,-1,-1,-1],"loss_changes":[1.772942E0,2.4536552E0,3.6591804E0,0E0,0E0,0E0,0E0],"parents":[2147483647,0,0,1,1,2,2],"right_children":[2,4,6,-1,-1,-1,-1],"split_conditions":[-3.539669E1,1.4691193E3,-3.073734E1,5.650887E-3,-1.1861893E-1,7.073588E-2,-8.561125E-4],"split_indices":[2,3,1,0,0,0,0],"split_type":[0,0,0,0,0,0,0],"sum_hessian":[2.6443054E2,5.2019653E0,2.5922858E2,3.232463E0,1.9695024E0,6.3461356E0,2.5288243E2],"tree_param":{"num_deleted":"0","num_feature":"6","num_nodes":"7","size_leaf_vector":"1"}},{"base_weights":[-1.0438887E-3,3.7288278E-1,-1.8844422E-2,7.723789E-2,-4.7502987E-2,-5.8718003E-2,5.149708E-4],"categories":[],"categories_nodes":[],"categories_segments":[],"categories_sizes":[],"default_left":[0,0,0,0,0,0,0],"id":24,"left_children":[1,3,5,-1,-1,-1,-1],"loss_changes":[1.7731205E0,4.4674006E0,3.4698815E0,0E0,0E0,0E0,0E0],"parents":[2147483647,0,0,1,1,2,2],"right_children":[2,4,6,-1,-1,-1,-1],"split_conditions":[1.2921715E3,6.836515E1,1.3116691E3,7.723789E-2,-4.7502987E-2,-5.8718003E-2,5.149708E-4],"split_indices":[4,0,3,0,0,0,0],"split_type":[0,0,0,0,0,0,0],"sum_hessian":[2.6433484E2,1.1105226E1,2.5322961E2,7.60921E0,3.4960158E0,9.307043E0,2.4392256E2],"tree_param":{"num_deleted":"0","num_feature":"6","num_nodes":"7","size_leaf_vector":"1"}},{"base_weights":[-1.0225928E-3,1.4621264E-1,-4.5873135E-2,2.777883E-3,5.8383603E-2,-7.439584E-2,-1.2750936E-3],"categories":[],"categories_nodes":[],"categories_segments":[],"categories_sizes":[],"default_left":[0,0,0,0,0,0,0],"id":25,"left_children":[1,3,5,-1,-1,-1,-1],"loss_changes":[1.7583131E0,3.2061644E0,4.709232E0,0E0,0E0,0E0,0E0],"parents":[2147483647,0,0,1,1,2,2],"right_children":[2,4,6,-1,-1,-1,-1],"split_conditions":[1.3999902E3,1.3791953E3,1.4007446E3,2.777883E-3,5.8383603E-2,-7.439584E-2,-1.2750936E-3],"split_indices":[4,3,3,0,0,0,0],"split_type":[0,0,0,0,0,0,0],"sum_hessian":[2.6425098E2,6.1172867E1,2.030781E2,4.8980717E1,1.2192151E1,8.226881E0,1.9485121E2],"tree_param":{"num_deleted":"0","num_feature":"6","num_nodes":"7","size_leaf_vector":"1"}},{"base_weights":[-9.636553E-4,1.4327351E-2,-4.0752697E-1,-4.6332096E-4,5.089317E-2,-9.347177E-2,3.54666E-3],"categories":[],"categories_nodes":[],"categories_segments":[],"categories_sizes":[],"default_left":[0,0,0,0,0,0,0],"id":26,"left_children":[1,3,5,-1,-1,-1,-1],"loss_changes":[1.654163E0,2.4077837E0,2.2855701E0,0E0,0E0,0E0,0E0],"parents":[2147483647,0,0,1,1,2,2],"right_children":[2,4,6,-1,-1,-1,-1],"split_conditions":[4.1744656E1,7.3561295E1,4.1267902E1,-4.6332096E-4,5.089317E-2,-9.347177E-2,3.54666E-3],"split_indices":[1,0,2,0,0,0,0],"split_type":[0,0,0,0,0,0,0],"sum_hessian":[2.6414188E2,2.554973E2,8.644593E0,2.4701852E2,8.478773E0,3.4403517E0,5.2042418E0],"tree_param":{"num_deleted":"0","num_feature":"6","num_nodes":"7","size_leaf_vector":"1"}},{"base_weights":[-1.0233355E-3,2.2491114E-1,-2.8338157E-2,5.2140415E-2,-6.578486E-2,-3.637263E-2,4.382344E-3],"categories":[],"categories_nodes":[],"categories_segments":[],"categories_sizes":[],"default_left":[0,0,0,0,0,0,0],"id":27,"left_children":[1,3,5,-1,-1,-1,-1],"loss_changes":[1.6423426E0,7.855732E0,5.7612057E0,0E0,0E0,0E0,0E0],"parents":[2147483647,0,0,1,1,2,2],"right_children":[2,4,6,-1,-1,-1,-1],"split_conditions":[3.7200314E1,1.5830043E3,4.4070248E1,5.2140415E-2,-6.578486E-2,-3.637263E-2,4.382344E-3],"split_indices":[0,3,0,0,0,0,0],"split_type":[0,0,0,0,0,0,0],"sum_hessian":[2.640905E2,2.7703882E1,2.3638663E2,2.1044876E1,6.6590075E0,4.113969E1,1.9524693E2],"tree_param":{"num_deleted":"0","num_feature":"6","num_nodes":"7","size_leaf_vector":"1"}},{"base_weights":[-1.0788986E-3,6.11071E-2,-9.4433E-2,-2.3955528E-3,5.532648E-2,-2.8924448E-2,8.169192E-3],"categories":[],"categories_nodes":[],"categories_segments":[],"categories_sizes":[],"default_left":[0,0,0,0,0,0,0],"id":28,"left_children":[1,3,5,-1,-1,-1,-1],"loss_changes":[1.544277E0,6.697646E0,3.6725645E0,0E0,0E0,0E0,0E0],"parents":[2147483647,0,0,1,1,2,2],"right_children":[2,4,6,-1,-1,-1,-1],"split_conditions":[1.03601265E1,5.6124653E1,2.171989E1,-2.3955528E-3,5.532648E-2,-2.8924448E-2,8.169192E-3],"split_indices":[1,0,5,0,0,0,0],"split_type":[0,0,0,0,0,0,0],"sum_hessian":[2.6401672E2,1.5866835E2,1.0534838E2,1.3609717E2,2.2571182E1,4.971568E1,5.5632698E1],"tree_param":{"num_deleted":"0","num_feature":"6","num_nodes":"7","size_leaf_vector":"1"}},{"base_weights":[-8.366588E-4,2.1559662E-1,-2.7893996E-2,3.2503445E-2,-1.1262039E-1,-4.6605315E-2,-7.661006E-4],"categories":[],"categories_nodes":[],"categories_segments":[],"categories_sizes":[],"default_left":[0,0,0,0,0,0,0],"id":29,"left_children":[1,3,5,-1,-1,-1,-1],"loss_changes":[1.5576245E0,4.706341E0,2.0921683E0,0E0,0E0,0E0,0E0],"parents":[2147483647,0,0,1,1,2,2],"right_children":[2,4,6,-1,-1,-1,-1],"split_conditions":[1.1186909E1,1.6439127E3,1.2076629E1,3.2503445E-2,-1.1262039E-1,-4.6605315E-2,-7.661006E-4],"split_indices":[5,3,5,0,0,0,0],"split_type":[0,0,0,0,0,0,0],"sum_hessian":[2.6395593E2,2.855718E1,2.3539876E2,2.7104305E1,1.4528759E0,9.417702E0,2.2598106E2],"tree_param":{"num_deleted":"0","num_feature":"6","num_nodes":"7","size_leaf_vector":"1"}},{"base_weights":[-1.2312079E-3,3.4388983E-1,-1.7494027E-2,7.1572475E-2,-4.340566E-2,-5.423036E-2,4.758279E-4],"categories":[],"categories_nodes":[],"categories_segments":[],"categories_sizes":[],"default_left":[0,0,0,0,0,0,0],"id":30,"left_children":[1,3,5,-1,-1,-1,-1],"loss_changes":[1.4923283E0,3.771894E0,2.9670932E0,0E0,0E0,0E0,0E0],"parents":[2147483647,0,0,1,1,2,2],"right_children":[2,4,6,-1,-1,-1,-1],"split_conditions":[1.2921715E3,6.836515E1,1.3116691E3,7.1572475E-2,-4.340566E-2,-5.423036E-2,4.758279E-4],"split_indices":[4,0,3,0,0,0,0],"split_type":[0,0,0,0,0,0,0],"sum_hessian":[2.638152E2,1.096549E1,2.5284969E2,7.4734087E0,3.4920816E0,9.334295E0,2.4351538E2],"tree_param":{"num_deleted":"0","num_feature":"6","num_nodes":"7","size_leaf_vector":"1"}},{"base_weights":[-1.183389E-3,1.3375805E-1,-4.2152435E-2,8.753078E-2,6.3736276E-3,-6.8358816E-2,-1.169545E-3],"categories":[],"categories_nodes":[],"categories_segments":[],"categories_sizes":[],"default_left":[0,0,0,0,0,0,0],"id":31,"left_children":[1,3,5,-1,-1,-1,-1],"loss_changes":[1.4690454E0,3.1577709E0,3.973819E0,0E0,0E0,0E0,0E0],"parents":[2147483647,0,0,1,1,2,2],"right_children":[2,4,6,-1,-1,-1,-1],"split_conditions":[1.3999902E3,1.379466E1,1.4007446E3,8.753078E-2,6.3736276E-3,-6.8358816E-2,-1.169545E-3],"split_indices":[4,5,3,0,0,0,0],"split_type":[0,0,0,0,0,0,0],"sum_hessian":[2.6370615E2,6.0888924E1,2.0281723E2,4.2611957E0,5.6627728E1,8.221655E0,1.9459557E2],"tree_param":{"num_deleted":"0","num_feature":"6","num_nodes":"7","size_leaf_vector":"1"}},{"base_weights":[-9.5583225E-4,3.01448E-2,-1.7443256E-1,1.7534381E-3,9.599613E-2,1.7612176E-3,-7.660197E-2],"categories":[],"categories_nodes":[],"categories_segments":[],"categories_sizes":[],"default_left":[0,0,0,0,0,0,0],"id":32,"left_children":[1,3,5,-1,-1,-1,-1],"loss_changes":[1.4325181E0,2.6234512E0,4.5992756E0,0E0,0E0,0E0,0E0],"parents":[2147483647,0,0,1,1,2,2],"right_children":[2,4,6,-1,-1,-1,-1],"split_conditions":[1.61397E3,1.6121205E3,2.2653324E1,1.7534381E-3,9.599613E-2,1.7612176E-3,-7.660197E-2],"split_indices":[4,4,2,0,0,0,0],"split_type":[0,0,0,0,0,0,0],"sum_hessian":[2.6354077E2,2.2417691E2,3.9363846E1,2.2218246E2,1.99444E0,3.04494E1,8.914448E0],"tree_param":{"num_deleted":"0","num_feature":"6","num_nodes":"7","size_leaf_vector":"1"}},{"base_weights":[-7.8854884E-4,1.3184452E-2,-3.7407967E-1,-4.1780804E-4,4.6566572E-2,-8.694213E-2,3.8713769E-3],"categories":[],"categories_nodes":[],"categories_segments":[],"categories_sizes":[],"default_left":[0,0,0,0,0,0,0],"id":33,"left_children":[1,3,5,-1,-1,-1,-1],"loss_changes":[1.3840129E0,2.0117297E0,1.9912388E0,0E0,0E0,0E0,0E0],"parents":[2147483647,0,0,1,1,2,2],"right_children":[2,4,6,-1,-1,-1,-1],"split_conditions":[4.1744656E1,7.3561295E1,4.1267902E1,-4.1780804E-4,4.6566572E-2,-8.694213E-2,3.8713769E-3],"split_indices":[1,0,2,0,0,0,0],"split_type":[0,0,0,0,0,0,0],"sum_hessian":[2.6339447E2,2.5482072E2,8.573747E0,2.4635828E2,8.462451E0,3.3943837E0,5.1793633E0],"tree_param":{"num_deleted":"0","num_feature":"6","num_nodes":"7","size_leaf_vector":"1"}},{"base_weights":[-8.568546E-4,-7.8103535E-2,5.780745E-3,2.5665408E-2,-2.4134344E-3],"categories":[],"categories_nodes":[],"categories_segments":[],"categories_sizes":[],"default_left":[0,0,0,0,0],"id":34,"left_children":[1,-1,3,-1,-1],"loss_changes":[1.3733244E0,0E0,1.9806402E0,0E0,0E0],"parents":[2147483647,0,0,2,2],"right_children":[2,-1,4,-1,-1],"split_conditions":[5.3712587E0,-7.8103535E-2,1.1186909E1,2.5665408E-2,-2.4134344E-3],"split_indices":[5,0,5,0,0],"split_type":[0,0,0,0,0],"sum_hessian":[2.6332486E2,1.2371979E0,2.6208765E2,2.7115208E1,2.3497244E2],"tree_param":{"num_deleted":"0","num_feature":"6","num_nodes":"5","size_leaf_vector":"1"}},{"base_weights":[-9.7292167E-4,2.071656E-1,-2.6110856E-2,4.7708925E-2,-5.9153315E-2,-1.3704537E-1,-8.853995E-4],"categories":[],"categories_nodes":[],"categories_segments":[],"categories_sizes":[],"default_left":[0,0,0,0,0,0,0],"id":35,"left_children":[1,3,5,-1,-1,-1,-1],"loss_changes":[1.3880026E0,6.4453077E0,5.4781976E0,0E0,0E0,0E0,0E0],"parents":[2147483647,0,0,1,1,2,2],"right_children":[2,4,6,-1,-1,-1,-1],"split_conditions":[3.7200314E1,1.5830043E3,3.7756176E1,4.7708925E-2,-5.9153315E-2,-1.3704537E-1,-8.853995E-4],"split_indices":[0,3,0,0,0,0,0],"split_type":[0,0,0,0,0,0,0],"sum_hessian":[2.632484E2,2.7587412E1,2.3566101E2,2.0920057E1,6.667355E0,1.9929297E0,2.3366808E2],"tree_param":{"num_deleted":"0","num_feature":"6","num_nodes":"7","size_leaf_vector":"1"}},{"base_weights":[-1.4318364E-3,-4.825822E-1,9.986192E-3,7.693622E-3,-1.12261176E-1,6.8765394E-2,-9.572396E-4],"categories":[],"categories_nodes":[],"categories_segments":[],"categories_sizes":[],"default_left":[0,0,0,0,0,0,0],"id":36,"left_children":[1,3,5,-1,-1,-1,-1],"loss_changes":[1.4559337E0,2.2862766E0,3.4393494E0,0E0,0E0,0E0,0E0],"parents":[2147483647,0,0,1,1,2,2],"right_children":[2,4,6,-1,-1,-1,-1],"split_conditions":[-3.539669E1,1.4691193E3,-3.073734E1,7.693622E-3,-1.12261176E-1,6.8765394E-2,-9.572396E-4],"split_indices":[2,3,1,0,0,0,0],"split_type":[0,0,0,0,0,0,0],"sum_hessian":[2.6313733E2,5.1431336E0,2.579942E2,3.213586E0,1.9295474E0,6.279032E0,2.5171516E2],"tree_param":{"num_deleted":"0","num_feature":"6","num_nodes":"7","size_leaf_vector":"1"}},{"base_weights":[-1.428314E-3,9.914179E-2,-4.994484E-2,2.3223775E-2,-2.0083284E-2,-7.238425E-2,-1.2499206E-3],"categories":[],"categories_nodes":[],"categories_segments":[],"categories_sizes":[],"default_left":[0,0,0,0,0,0,0],"id":37,"left_children":[1,3,5,-1,-1,-1,-1],"loss_changes":[1.2932427E0,3.4905028E0,4.502227E0,0E0,0E0,0E0,0E0],"parents":[2147483647,0,0,1,1,2,2],"right_children":[2,4,6,-1,-1,-1,-1],"split_conditions":[1.4195037E3,1.5538115E1,1.4270958E3,2.3223775E-2,-2.0083284E-2,-7.238425E-2,-1.2499206E-3],"split_indices":[3,1,3,0,0,0,0],"split_type":[0,0,0,0,0,0,0],"sum_hessian":[2.6303128E2,8.52574E1,1.7777388E2,5.9211582E1,2.604582E1,8.393217E0,1.6938066E2],"tree_param":{"num_deleted":"0","num_feature":"6","num_nodes":"7","size_leaf_vector":"1"}},{"base_weights":[-1.5517663E-3,-4.629636E-1,9.327684E-3,5.91659E-3,-1.0646726E-1,6.285903E-2,-8.348619E-4],"categories":[],"categories_nodes":[],"categories_segments":[],"categories_sizes":[],"default_left":[0,0,0,0,0,0,0],"id":38,"left_children":[1,3,5,-1,-1,-1,-1],"loss_changes":[1.3287829E0,1.9786389E0,2.837541E0,0E0,0E0,0E0,0E0],"parents":[2147483647,0,0,1,1,2,2],"right_children":[2,4,6,-1,-1,-1,-1],"split_conditions":[-3.539669E1,1.4691193E3,-3.073734E1,5.91659E-3,-1.0646726E-1,6.285903E-2,-8.348619E-4],"split_indices":[2,3,1,0,0,0,0],"split_type":[0,0,0,0,0,0,0],"sum_hessian":[2.6284244E2,5.0974836E0,2.5774496E2,3.2119782E0,1.8855053E0,6.193787E0,2.5155118E2],"tree_param":{"num_deleted":"0","num_feature":"6","num_nodes":"7","size_leaf_vector":"1"}},{"base_weights":[-1.5441882E-3,-1.2187163E-1,4.1112322E-2,4.3920293E-3,-7.562562E-2,3.6991637E-2,-5.7651247E-3],"categories":[],"categories_nodes":[],"categories_segments":[],"categories_sizes":[],"default_left":[0,0,0,0,0,0,0],"id":39,"left_children":[1,3,5,-1,-1,-1,-1],"loss_changes":[1.3586277E0,7.3191733E0,6.3682656E0,0E0,0E0,0E0,0E0],"parents":[2147483647,0,0,1,1,2,2],"right_children":[2,4,6,-1,-1,-1,-1],"split_conditions":[4.4070248E1,4.191605E1,5.0469414E1,4.3920293E-3,-7.562562E-2,3.6991637E-2,-5.7651247E-3],"split_indices":[0,0,0,0,0,0,0],"split_type":[0,0,0,0,0,0,0],"sum_hessian":[2.627217E2,6.827406E1,1.9444766E2,5.4865993E1,1.3408071E1,4.4281166E1,1.5016649E2],"tree_param":{"num_deleted":"0","num_feature":"6","num_nodes":"7","size_leaf_vector":"1"}},{"base_weights":[-1.5336464E-3,3.2119817E-1,-1.6540276E-2,7.3800296E-2,-3.1405948E-2,-5.3746145E-2,5.542586E-4],"categories":[],"categories_nodes":[],"categories_segments":[],"categories_sizes":[],"default_left":[0,0,0,0,0,0,0],"id":40,"left_children":[1,3,5,-1,-1,-1,-1],"loss_changes":[1.2823548E0,3.3469143E0,2.9123905E0,0E0,0E0,0E0,0E0],"parents":[2147483647,0,0,1,1,2,2],"right_children":[2,4,6,-1,-1,-1,-1],"split_conditions":[1.2921715E3,3.1448057E1,1.3116691E3,7.3800296E-2,-3.1405948E-2,-5.3746145E-2,5.542586E-4],"split_indices":[4,2,3,0,0,0,0],"split_type":[0,0,0,0,0,0,0],"sum_hessian":[2.6268192E2,1.0765072E1,2.5191684E2,6.4025183E0,4.362554E0,9.295816E0,2.4262102E2],"tree_param":{"num_deleted":"0","num_feature":"6","num_nodes":"7","size_leaf_vector":"1"}},{"base_weights":[-1.4011478E-3,1.4434423E-2,-3.0043122E-1,-4.3938844E-3,1.671536E-2,-1.5332325E-3,-1.20545805E-1],"categories":[],"categories_nodes":[],"categories_segments":[],"categories_sizes":[],"default_left":[0,0,0,0,0,0,0],"id":41,"left_children":[1,3,5,-1,-1,-1,-1],"loss_changes":[1.2525543E0,2.247567E0,3.4139855E0,0E0,0E0,0E0,0E0],"parents":[2147483647,0,0,1,1,2,2],"right_children":[2,4,6,-1,-1,-1,-1],"split_conditions":[5.4566196E1,2.7949352E1,7.015883E1,-4.3938844E-3,1.671536E-2,-1.5332325E-3,-1.20545805E-1],"split_indices":[5,5,0,0,0,0,0],"split_type":[0,0,0,0,0,0,0],"sum_hessian":[2.625978E2,2.502948E2,1.2302996E1,1.8159625E2,6.869855E1,1.0129098E1,2.1738973E0],"tree_param":{"num_deleted":"0","num_feature":"6","num_nodes":"7","size_leaf_vector":"1"}},{"base_weights":[-1.6863229E-3,-3.8628012E-2,1.24977045E-1,1.3353912E-3,-7.291556E-2,4.9011424E-2,-9.564533E-3],"categories":[],"categories_nodes":[],"categories_segments":[],"categories_sizes":[],"default_left":[0,0,0,0,0,0,0],"id":42,"left_children":[1,3,5,-1,-1,-1,-1],"loss_changes":[1.2380728E0,7.36151E0,4.859999E0,0E0,0E0,0E0,0E0],"parents":[2147483647,0,0,1,1,2,2],"right_children":[2,4,6,-1,-1,-1,-1],"split_conditions":[6.1353687E1,5.9671406E1,6.561356E1,1.3353912E-3,-7.291556E-2,4.9011424E-2,-9.564533E-3],"split_indices":[0,0,0,0,0,0,0],"split_type":[0,0,0,0,0,0,0],"sum_hessian":[2.6256128E2,2.0381358E2,5.8747707E1,1.9045692E2,1.3356662E1,2.1666853E1,3.7080853E1],"tree_param":{"num_deleted":"0","num_feature":"6","num_nodes":"7","size_leaf_vector":"1"}},{"base_weights":[-1.632406E-3,-4.3864083E-1,8.596952E-3,5.484126E-3,-1.0160082E-1,5.823902E-2,-7.6254975E-4],"categories":[],"categories_nodes":[],"categories_segments":[],"categories_sizes":[],"default_left":[0,0,0,0,0,0,0],"id":43,"left_children":[1,3,5,-1,-1,-1,-1],"loss_changes":[1.1815416E0,1.7781392E0,2.4098952E0,0E0,0E0,0E0,0E0],"parents":[2147483647,0,0,1,1,2,2],"right_children":[2,4,6,-1,-1,-1,-1],"split_conditions":[-3.539669E1,1.4691193E3,-3.073734E1,5.484126E-3,-1.0160082E-1,5.823902E-2,-7.6254975E-4],"split_indices":[2,3,1,0,0,0,0],"split_type":[0,0,0,0,0,0,0],"sum_hessian":[2.6246475E2,5.0452676E0,2.5741946E2,3.2081995E0,1.837068E0,6.1181536E0,2.5130132E2],"tree_param":{"num_deleted":"0","num_feature":"6","num_nodes":"7","size_leaf_vector":"1"}},{"base_weights":[-1.6183122E-3,-1.15045644E-1,3.8553614E-2,3.4787331E-3,-6.862818E-2,3.3117298E-2,-4.921536E-3],"categories":[],"categories_nodes":[],"categories_segments":[],"categories_sizes":[],"default_left":[0,0,0,0,0,0,0],"id":44,"left_children":[1,3,5,-1,-1,-1,-1],"loss_changes":[1.2043486E0,5.940116E0,5.029921E0,0E0,0E0,0E0,0E0],"parents":[2147483647,0,0,1,1,2,2],"right_children":[2,4,6,-1,-1,-1,-1],"split_conditions":[4.4070248E1,4.191605E1,5.0469414E1,3.4787331E-3,-6.862818E-2,3.3117298E-2,-4.921536E-3],"split_indices":[0,0,0,0,0,0,0],"split_type":[0,0,0,0,0,0,0],"sum_hessian":[2.6233548E2,6.812304E1,1.9421245E2,5.4711525E1,1.3411515E1,4.417176E1,1.5004068E2],"tree_param":{"num_deleted":"0","num_feature":"6","num_nodes":"7","size_leaf_vector":"1"}},{"base_weights":[-1.5935701E-3,-5.5931773E-2,8.494298E-2,5.1385663E-3,-4.1116145E-2,6.7430824E-2,-1.9129319E-3],"categories":[],"categories_nodes":[],"categories_segments":[],"categories_sizes":[],"default_left":[0,0,0,0,0,0,0],"id":45,"left_children":[1,3,5,-1,-1,-1,-1],"loss_changes":[1.2425587E0,6.208564E0,6.265131E0,0E0,0E0,0E0,0E0],"parents":[2147483647,0,0,1,1,2,2],"right_children":[2,4,6,-1,-1,-1,-1],"split_conditions":[5.6124653E1,5.173089E1,7.5134677E-1,5.1385663E-3,-4.1116145E-2,6.7430824E-2,-1.9129319E-3],"split_indices":[0,0,2,0,0,0,0],"split_type":[0,0,0,0,0,0,0],"sum_hessian":[2.6223785E2,1.6130473E2,1.0093313E2,1.2453666E2,3.6768074E1,1.4325885E1,8.660725E1],"tree_param":{"num_deleted":"0","num_feature":"6","num_nodes":"7","size_leaf_vector":"1"}},{"base_weights":[-1.3056799E-3,2.7075576E-2,-1.5967746E-1,1.5370216E-3,8.906224E-2,3.004638E-3,-6.959849E-2],"categories":[],"categories_nodes":[],"categories_segments":[],"categories_sizes":[],"default_left":[0,0,0,0,0,0,0],"id":46,"left_children":[1,3,5,-1,-1,-1,-1],"loss_changes":[1.1871239E0,2.2506616E0,4.1047955E0,0E0,0E0,0E0,0E0],"parents":[2147483647,0,0,1,1,2,2],"right_children":[2,4,6,-1,-1,-1,-1],"split_conditions":[1.61397E3,1.6121205E3,2.1639118E1,1.5370216E-3,8.906224E-2,3.004638E-3,-6.959849E-2],"split_indices":[4,4,2,0,0,0,0],"split_type":[0,0,0,0,0,0,0],"sum_hessian":[2.621492E2,2.2301288E2,3.9136326E1,2.2103456E2,1.9783198E0,2.9606665E1,9.529662E0],"tree_param":{"num_deleted":"0","num_feature":"6","num_nodes":"7","size_leaf_vector":"1"}},{"base_weights":[-1.0979628E-3,1.4282786E-2,-2.9296076E-1,-4.0160606E-4,4.3674663E-2,-3.0400525E-3,-1.1318617E-1],"categories":[],"categories_nodes":[],"categories_segments":[],"categories_sizes":[],"default_left":[0,0,0,0,0,0,0],"id":47,"left_children":[1,3,5,-1,-1,-1,-1],"loss_changes":[1.1847372E0,1.9403749E0,2.8755999E0,0E0,0E0,0E0,0E0],"parents":[2147483647,0,0,1,1,2,2],"right_children":[2,4,6,-1,-1,-1,-1],"split_conditions":[5.4566196E1,7.3561295E1,7.015883E1,-4.0160606E-4,4.3674663E-2,-3.0400525E-3,-1.1318617E-1],"split_indices":[5,0,0,0,0,0,0],"split_type":[0,0,0,0,0,0,0],"sum_hessian":[2.6198395E2,2.4977235E2,1.2211579E1,2.403521E2,9.4202585E0,1.0089876E1,2.1217036E0],"tree_param":{"num_deleted":"0","num_feature":"6","num_nodes":"7","size_leaf_vector":"1"}},{"base_weights":[-1.276457E-3,3.1253168E-1,-1.5674084E-2,6.869855E-2,-2.554129E-2,-4.9447272E-2,4.7038635E-4],"categories":[],"categories_nodes":[],"categories_segments":[],"categories_sizes":[],"default_left":[0,0,0,0,0,0,0],"id":48,"left_children":[1,3,5,-1,-1,-1,-1],"loss_changes":[1.1927927E0,2.6384742E0,2.4643705E0,0E0,0E0,0E0,0E0],"parents":[2147483647,0,0,1,1,2,2],"right_children":[2,4,6,-1,-1,-1,-1],"split_conditions":[1.2921715E3,3.1448057E1,1.3116691E3,6.869855E-2,-2.554129E-2,-4.9447272E-2,4.7038635E-4],"split_indices":[4,2,3,0,0,0,0],"split_type":[0,0,0,0,0,0,0],"sum_hessian":[2.6191937E2,1.0581421E1,2.5133794E2,6.250668E0,4.3307524E0,9.310647E0,2.420273E2],"tree_param":{"num_deleted":"0","num_feature":"6","num_nodes":"7","size_leaf_vector":"1"}},{"base_weights":[-1.1534549E-3,1.0018327E-1,-4.40969E-2,3.0504656E-3,1.0832715E-1,-1.7072406E-4,-6.1194677E-2],"categories":[],"categories_nodes":[],"categories_segments":[],"categories_sizes":[],"default_left":[0,0,0,0,0,0,0],"id":49,"left_children":[1,3,5,-1,-1,-1,-1],"loss_changes":[1.1481296E0,5.3462906E0,4.4589777E0,0E0,0E0,0E0,0E0],"parents":[2147483647,0,0,1,1,2,2],"right_children":[2,4,6,-1,-1,-1,-1],"split_conditions":[1.4127661E3,1.4085878E3,4.5786682E1,3.0504656E-3,1.0832715E-1,-1.7072406E-4,-6.1194677E-2],"split_indices":[4,4,5,0,0,0,0],"split_type":[0,0,0,0,0,0,0],"sum_hessian":[2.6181662E2,7.753018E1,1.8428644E2,7.336155E1,4.168637E0,1.724185E2,1.1867934E1],"tree_param":{"num_deleted":"0","num_feature":"6","num_nodes":"7","size_leaf_vector":"1"}},{"base_weights":[-8.430697E-4,-4.3081146E-1,9.157614E-3,3.2400612E-3,-9.746994E-2,5.9044786E-2,-5.514094E-4],"categories":[],"categories_nodes":[],"categories_segments":[],"categories_sizes":[],"default_left":[0,0,0,0,0,0,0],"id":50,"left_children":[1,3,5,-1,-1,-1,-1],"loss_changes":[1.1334593E0,1.5410823E0,2.2009482E0,0E0,0E0,0E0,0E0],"parents":[2147483647,0,0,1,1,2,2],"right_children":[2,4,6,-1,-1,-1,-1],"split_conditions":[-3.539669E1,1.4691193E3,-3.1509941E1,3.2400612E-3,-9.746994E-2,5.9044786E-2,-5.514094E-4],"split_indices":[2,3,1,0,0,0,0],"split_type":[0,0,0,0,0,0,0],"sum_hessian":[2.6167905E2,4.9916205E0,2.566874E2,3.2036235E0,1.7879968E0,5.3531384E0,2.5133429E2],"tree_param":{"num_deleted":"0","num_feature":"6","num_nodes":"7","size_leaf_vector":"1"}},{"base_weights":[-8.9738425E-4,-1.0975989E-1,3.7654083E-2,2.704797E-3,-6.30304E-2,2.9865667E-2,-4.045243E-3],"categories":[],"categories_nodes":[],"categories_segments":[],"categories_sizes":[],"default_left":[0,0,0,0,0,0,0],"id":51,"left_children":[1,3,5,-1,-1,-1,-1],"loss_changes":[1.1059985E0,4.9249163E0,3.979844E0,0E0,0E0,0E0,0E0],"parents":[2147483647,0,0,1,1,2,2],"right_children":[2,4,6,-1,-1,-1,-1],"split_conditions":[4.4070248E1,4.191605E1,5.0469414E1,2.704797E-3,-6.30304E-2,2.9865667E-2,-4.045243E-3],"split_indices":[0,0,0,0,0,0,0],"split_type":[0,0,0,0,0,0,0],"sum_hessian":[2.6154843E2,6.791668E1,1.9363174E2,5.4532616E1,1.3384063E1,4.3948544E1,1.496832E2],"tree_param":{"num_deleted":"0","num_feature":"6","num_nodes":"7","size_leaf_vector":"1"}},{"base_weights":[-9.38367E-4,-3.5961933E-2,1.19339086E-1,1.14067E-3,-6.642948E-2,4.4283397E-2,-7.6398063E-3],"categories":[],"categories_nodes":[],"categories_segments":[],"categories_sizes":[],"default_left":[0,0,0,0,0,0,0],"id":52,"left_children":[1,3,5,-1,-1,-1,-1],"loss_changes":[1.1097168E0,6.079333E0,3.7957337E0,0E0,0E0,0E0,0E0],"parents":[2147483647,0,0,1,1,2,2],"right_children":[2,4,6,-1,-1,-1,-1],"split_conditions":[6.1353687E1,5.9671406E1,6.561356E1,1.14067E-3,-6.642948E-2,4.4283397E-2,-7.6398063E-3],"split_indices":[0,0,0,0,0,0,0],"split_type":[0,0,0,0,0,0,0],"sum_hessian":[2.6141266E2,2.0300165E2,5.8410995E1,1.8968365E2,1.3317987E1,2.1543558E1,3.686744E1],"tree_param":{"num_deleted":"0","num_feature":"6","num_nodes":"7","size_leaf_vector":"1"}},{"base_weights":[-9.496773E-4,-5.3090375E-2,8.2253784E-2,4.264161E-3,-3.685297E-2,1.13359265E-1,2.4978225E-3],"categories":[],"categories_nodes":[],"categories_segments":[],"categories_sizes":[],"default_left":[0,0,0,0,0,0,0],"id":53,"left_children":[1,3,5,-1,-1,-1,-1],"loss_changes":[1.1421819E0,4.902937E0,6.079495E0,0E0,0E0,0E0,0E0],"parents":[2147483647,0,0,1,1,2,2],"right_children":[2,4,6,-1,-1,-1,-1],"split_conditions":[5.6124653E1,5.173089E1,5.659242E1,4.264161E-3,-3.685297E-2,1.13359265E-1,2.4978225E-3],"split_indices":[0,0,0,0,0,0,0],"split_type":[0,0,0,0,0,0,0],"sum_hessian":[2.612729E2,1.6084123E2,1.00431656E2,1.2405644E2,3.6784798E1,4.217844E0,9.621381E1],"tree_param":{"num_deleted":"0","num_feature":"6","num_nodes":"7","size_leaf_vector":"1"}},{"base_weights":[-5.269909E-4,1.1548619E-1,-3.5524193E-2,8.263152E-2,5.002733E-3,-6.284966E-2,-4.3534415E-4],"categories":[],"categories_nodes":[],"categories_segments":[],"categories_sizes":[],"default_left":[0,0,0,0,0,0,0],"id":54,"left_children":[1,3,5,-1,-1,-1,-1],"loss_changes":[1.06869E0,2.7970953E0,3.7346559E0,0E0,0E0,0E0,0E0],"parents":[2147483647,0,0,1,1,2,2],"right_children":[2,4,6,-1,-1,-1,-1],"split_conditions":[1.3999902E3,1.379466E1,1.4022034E3,8.263152E-2,5.002733E-3,-6.284966E-2,-4.3534415E-4],"split_indices":[4,5,3,0,0,0,0],"split_type":[0,0,0,0,0,0,0],"sum_hessian":[2.612048E2,6.000215E1,2.0120264E2,4.0794353E0,5.5922718E1,9.091362E0,1.9211128E2],"tree_param":{"num_deleted":"0","num_feature":"6","num_nodes":"7","size_leaf_vector":"1"}},{"base_weights":[-3.646693E-4,-1.1686666E-1,3.34897E-2,1.0711484E-2,-4.2423766E-2,3.6411926E-2,-5.210413E-4],"categories":[],"categories_nodes":[],"categories_segments":[],"categories_sizes":[],"default_left":[0,0,0,0,0,0,0],"id":55,"left_children":[1,3,5,-1,-1,-1,-1],"loss_changes":[1.037454E0,4.1228447E0,2.6098762E0,0E0,0E0,0E0,0E0],"parents":[2147483647,0,0,1,1,2,2],"right_children":[2,4,6,-1,-1,-1,-1],"split_conditions":[-1.18942995E1,4.060749E1,-4.85307E0,1.0711484E-2,-4.2423766E-2,3.6411926E-2,-5.210413E-4],"split_indices":[1,0,1,0,0,0,0],"split_type":[0,0,0,0,0,0,0],"sum_hessian":[2.6104706E2,5.822548E1,2.028216E2,3.405852E1,2.416696E1,2.0371498E1,1.8245009E2],"tree_param":{"num_deleted":"0","num_feature":"6","num_nodes":"7","size_leaf_vector":"1"}},{"base_weights":[-3.015911E-4,9.352566E-2,-4.5322936E-2,5.4524668E-2,1.7849554E-3,-6.707918E-2,-1.077703E-3],"categories":[],"categories_nodes":[],"categories_segments":[],"categories_sizes":[],"default_left":[0,0,0,0,0,0,0],"id":56,"left_children":[1,3,5,-1,-1,-1,-1],"loss_changes":[1.1111639E0,2.905962E0,3.8334615E0,0E0,0E0,0E0,0E0],"parents":[2147483647,0,0,1,1,2,2],"right_children":[2,4,6,-1,-1,-1,-1],"split_conditions":[1.4195037E3,1.3888091E1,1.4270958E3,5.4524668E-2,1.7849554E-3,-6.707918E-2,-1.077703E-3],"split_indices":[3,5,3,0,0,0,0],"split_type":[0,0,0,0,0,0,0],"sum_hessian":[2.610419E2,8.429291E1,1.7674898E2,1.1204818E1,7.308809E1,8.287251E0,1.6846173E2],"tree_param":{"num_deleted":"0","num_feature":"6","num_nodes":"7","size_leaf_vector":"1"}},{"base_weights":[-3.1009104E-4,-6.732488E-2,5.5007637E-3,4.2186677E-2,-9.236101E-4],"categories":[],"categories_nodes":[],"categories_segments":[],"categories_sizes":[],"default_left":[0,0,0,0,0],"id":57,"left_children":[1,-1,3,-1,-1],"loss_changes":[1.0275358E0,0E0,1.602777E0,0E0,0E0],"parents":[2147483647,0,0,2,2],"right_children":[2,-1,4,-1,-1],"split_conditions":[5.3712587E0,-6.732488E-2,8.588201E0,4.2186677E-2,-9.236101E-4],"split_indices":[5,0,5,0,0],"split_type":[0,0,0,0,0],"sum_hessian":[2.608264E2,1.2496309E0,2.5957675E2,7.9290066E0,2.5164775E2],"tree_param":{"num_deleted":"0","num_feature":"6","num_nodes":"5","size_leaf_vector":"1"}},{"base_weights":[-3.7425218E-4,-1.0487276E-1,3.6647324E-2,8.511756E-3,-4.096511E-2,5.31342E-2,7.019539E-5],"categories":[],"categories_nodes":[],"categories_segments":[],"categories_sizes":[],"default_left":[0,0,0,0,0,0,0],"id":58,"left_children":[1,3,5,-1,-1,-1,-1],"loss_changes":[1.0165778E0,4.015228E0,3.4499886E0,0E0,0E0,0E0,0E0],"parents":[2147483647,0,0,1,1,2,2],"right_children":[2,4,6,-1,-1,-1,-1],"split_conditions":[4.4070248E1,4.020021E1,4.6132915E1,8.511756E-3,-4.096511E-2,5.31342E-2,7.019539E-5],"split_indices":[0,0,0,0,0,0,0],"split_type":[0,0,0,0,0,0,0],"sum_hessian":[2.607765E2,6.773955E1,1.9303696E2,4.2171642E1,2.5567902E1,1.21426735E1,1.8089429E2],"tree_param":{"num_deleted":"0","num_feature":"6","num_nodes":"7","size_leaf_vector":"1"}},{"base_weights":[-2.5171024E-4,1.00203585E-2,-3.780987E-1,1.05950145E-4,1.0243728E-1,1.9216449E-4,-6.684062E-2],"categories":[],"categories_nodes":[],"categories_segments":[],"categories_sizes":[],"default_left":[0,0,0,0,0,0,0],"id":59,"left_children":[1,3,5,-1,-1,-1,-1],"loss_changes":[1.0192544E0,2.3229284E0,7.680553E-1,0E0,0E0,0E0,0E0],"parents":[2147483647,0,0,1,1,2,2],"right_children":[2,4,6,-1,-1,-1,-1],"split_conditions":[1.7496766E3,1.730331E3,3.1428522E1,1.05950145E-4,1.0243728E-1,1.9216449E-4,-6.684062E-2],"split_indices":[3,4,5,0,0,0,0],"split_type":[0,0,0,0,0,0,0],"sum_hessian":[2.6063232E2,2.5468207E2,5.9502525E0,2.5344417E2,1.2378982E0,3.0071683E0,2.9430842E0],"tree_param":{"num_deleted":"0","num_feature":"6","num_nodes":"7","size_leaf_vector":"1"}},{"base_weights":[-9.4119976E-5,3.1282026E-1,-1.2277097E-2,7.11782E-2,-3.38854E-2,-4.0809043E-2,7.06739E-4],"categories":[],"categories_nodes":[],"categories_segments":[],"categories_sizes":[],"default_left":[0,0,0,0,0,0,0],"id":60,"left_children":[1,3,5,-1,-1,-1,-1],"loss_changes":[1.0009687E0,2.7994447E0,1.9379172E0,0E0,0E0,0E0,0E0],"parents":[2147483647,0,0,1,1,2,2],"right_children":[2,4,6,-1,-1,-1,-1],"split_conditions":[1.2810673E3,6.836515E1,1.3116691E3,7.11782E-2,-3.38854E-2,-4.0809043E-2,7.06739E-4],"split_indices":[3,0,3,0,0,0,0],"split_type":[0,0,0,0,0,0,0],"sum_hessian":[2.605604E2,8.839704E0,2.517207E2,5.4257607E0,3.4139428E0,1.0792672E1,2.4092802E2],"tree_param":{"num_deleted":"0","num_feature":"6","num_nodes":"7","size_leaf_vector":"1"}},{"base_weights":[-7.777164E-5,2.8355978E-2,-1.3388006E-1,2.5916568E-4,6.839722E-2,-1.5542282E-3,-5.1613748E-2],"categories":[],"categories_nodes":[],"categories_segments":[],"categories_sizes":[],"default_left":[0,0,0,0,0,0,0],"id":61,"left_children":[1,3,5,-1,-1,-1,-1],"loss_changes":[9.9858576E-1,3.654822E0,2.0728865E0,0E0,0E0,0E0,0E0],"parents":[2147483647,0,0,1,1,2,2],"right_children":[2,4,6,-1,-1,-1,-1],"split_conditions":[1.6100896E3,1.6012084E3,2.1639118E1,2.5916568E-4,6.839722E-2,-1.5542282E-3,-5.1613748E-2],"split_indices":[4,4,2,0,0,0,0],"split_type":[0,0,0,0,0,0,0],"sum_hessian":[2.60477E2,2.1547534E2,4.5001663E1,2.082938E2,7.18155E0,3.5158188E1,9.843476E0],"tree_param":{"num_deleted":"0","num_feature":"6","num_nodes":"7","size_leaf_vector":"1"}},{"base_weights":[-1.6509917E-5,-4.0774878E-2,9.09947E-2,-4.2930833E-4,-5.8918335E-2,5.105952E-2,-9.813659E-3],"categories":[],"categories_nodes":[],"categories_segments":[],"categories_sizes":[],"default_left":[0,0,0,0,0,0,0],"id":62,"left_children":[1,3,5,-1,-1,-1,-1],"loss_changes":[9.731069E-1,3.6224725E0,6.489579E0,0E0,0E0,0E0,0E0],"parents":[2147483647,0,0,1,1,2,2],"right_children":[2,4,6,-1,-1,-1,-1],"split_conditions":[2.7949352E1,2.6863506E1,3.1428522E1,-4.2930833E-4,-5.8918335E-2,5.105952E-2,-9.813659E-3],"split_indices":[5,5,5,0,0,0,0],"split_type":[0,0,0,0,0,0,0],"sum_hessian":[2.603303E2,1.8018736E2,8.0142944E1,1.6989337E2,1.0293995E1,2.4372103E1,5.577084E1],"tree_param":{"num_deleted":"0","num_feature":"6","num_nodes":"7","size_leaf_vector":"1"}},{"base_weights":[-7.55049E-5,1.4133231E-1,-2.676208E-2,-6.406493E-5,1.216355E-1,-7.107087E-2,-1.3386704E-3],"categories":[],"categories_nodes":[],"categories_segments":[],"categories_sizes":[],"default_left":[0,0,0,0,0,0,0],"id":63,"left_children":[1,3,5,-1,-1,-1,-1],"loss_changes":[9.8973316E-1,6.355781E0,2.0088322E0,0E0,0E0,0E0,0E0],"parents":[2147483647,0,0,1,1,2,2],"right_children":[2,4,6,-1,-1,-1,-1],"split_conditions":[1.3684862E3,1.3599128E3,1.3750874E3,-6.406493E-5,1.216355E-1,-7.107087E-2,-1.3386704E-3],"split_indices":[4,4,4,0,0,0,0],"split_type":[0,0,0,0,0,0,0],"sum_hessian":[2.6026968E2,4.0638245E1,2.1963145E2,3.678026E1,3.857984E0,3.2127476E0,2.164187E2],"tree_param":{"num_deleted":"0","num_feature":"6","num_nodes":"7","size_leaf_vector":"1"}},{"base_weights":[1.38198E-4,-3.999215E-1,9.394695E-3,5.4307375E-3,-9.458655E-2,5.398192E-2,-3.8317865E-4],"categories":[],"categories_nodes":[],"categories_segments":[],"categories_sizes":[],"default_left":[0,0,0,0,0,0,0],"id":64,"left_children":[1,3,5,-1,-1,-1,-1],"loss_changes":[9.7108346E-1,1.5219731E0,1.8000867E0,0E0,0E0,0E0,0E0],"parents":[2147483647,0,0,1,1,2,2],"right_children":[2,4,6,-1,-1,-1,-1],"split_conditions":[-3.539669E1,1.4691193E3,-3.1509941E1,5.4307375E-3,-9.458655E-2,5.398192E-2,-3.8317865E-4],"split_indices":[2,3,1,0,0,0,0],"split_type":[0,0,0,0,0,0,0],"sum_hessian":[2.6021704E2,4.9302554E0,2.5528679E2,3.18273E0,1.7475256E0,5.2422485E0,2.5004454E2],"tree_param":{"num_deleted":"0","num_feature":"6","num_nodes":"7","size_leaf_vector":"1"}},{"base_weights":[-1.45732665E-5,-4.8260193E-2,7.690462E-2,4.082304E-3,-3.4113206E-2,1.0507524E-1,2.4147253E-3],"categories":[],"categories_nodes":[],"categories_segments":[],"categories_sizes":[],"default_left":[0,0,0,0,0,0,0],"id":65,"left_children":[1,3,5,-1,-1,-1,-1],"loss_changes":[9.725942E-1,4.2160096E0,5.1648884E0,0E0,0E0,0E0,0E0],"parents":[2147483647,0,0,1,1,2,2],"right_children":[2,4,6,-1,-1,-1,-1],"split_conditions":[5.6124653E1,5.173089E1,5.659242E1,4.082304E-3,-3.4113206E-2,1.0507524E-1,2.4147253E-3],"split_indices":[0,0,0,0,0,0,0],"split_type":[0,0,0,0,0,0,0],"sum_hessian":[2.6008304E2,1.6006125E2,1.0002179E2,1.2339012E2,3.667113E1,4.168001E0,9.585378E1],"tree_param":{"num_deleted":"0","num_feature":"6","num_nodes":"7","size_leaf_vector":"1"}},{"base_weights":[2.9620185E-4,-9.574964E-2,3.968989E-2,-8.6300645E-4,-6.0163654E-2,4.000075E-2,-2.2708115E-3],"categories":[],"categories_nodes":[],"categories_segments":[],"categories_sizes":[],"default_left":[0,0,0,0,0,0,0],"id":66,"left_children":[1,3,5,-1,-1,-1,-1],"loss_changes":[9.912381E-1,3.3531756E0,4.185941E0,0E0,0E0,0E0,0E0],"parents":[2147483647,0,0,1,1,2,2],"right_children":[2,4,6,-1,-1,-1,-1],"split_conditions":[-5.2021537E0,-7.798591E0,5.355599E-1,-8.6300645E-4,-6.0163654E-2,4.000075E-2,-2.2708115E-3],"split_indices":[2,2,2,0,0,0,0],"split_type":[0,0,0,0,0,0,0],"sum_hessian":[2.599784E2,7.520073E1,1.8477765E2,6.502051E1,1.0180224E1,2.6476776E1,1.5830087E2],"tree_param":{"num_deleted":"0","num_feature":"6","num_nodes":"7","size_leaf_vector":"1"}},{"base_weights":[1.8687078E-4,8.893808E-2,-4.23706E-2,8.089774E-2,4.291279E-3,-2.3984494E-2,5.4055043E-3],"categories":[],"categories_nodes":[],"categories_segments":[],"categories_sizes":[],"default_left":[0,0,0,0,0,0,0],"id":67,"left_children":[1,3,5,-1,-1,-1,-1],"loss_changes":[9.8941606E-1,2.7788725E0,3.384442E0,0E0,0E0,0E0,0E0],"parents":[2147483647,0,0,1,1,2,2],"right_children":[2,4,6,-1,-1,-1,-1],"split_conditions":[1.4195037E3,3.6907265E1,1.4850569E3,8.089774E-2,4.291279E-3,-2.3984494E-2,5.4055043E-3],"split_indices":[3,0,4,0,0,0,0],"split_type":[0,0,0,0,0,0,0],"sum_hessian":[2.5995862E2,8.390002E1,1.760586E2,4.04479E0,7.985523E1,5.7275078E1,1.1878352E2],"tree_param":{"num_deleted":"0","num_feature":"6","num_nodes":"7","size_leaf_vector":"1"}},{"base_weights":[4.404056E-4,-9.983828E-2,3.742755E-2,6.9597024E-3,-3.494961E-2,5.902792E-2,4.1657855E-4],"categories":[],"categories_nodes":[],"categories_segments":[],"categories_sizes":[],"default_left":[0,0,0,0,0,0,0],"id":68,"left_children":[1,3,5,-1,-1,-1,-1],"loss_changes":[9.70914E-1,3.008099E0,3.5139694E0,0E0,0E0,0E0,0E0],"parents":[2147483647,0,0,1,1,2,2],"right_children":[2,4,6,-1,-1,-1,-1],"split_conditions":[4.447551E1,4.020021E1,4.6132915E1,6.9597024E-3,-3.494961E-2,5.902792E-2,4.1657855E-4],"split_indices":[0,0,0,0,0,0,0],"split_type":[0,0,0,0,0,0,0],"sum_hessian":[2.5976343E2,6.953701E1,1.9022641E2,4.185351E1,2.76835E1,9.844934E0,1.8038147E2],"tree_param":{"num_deleted":"0","num_feature":"6","num_nodes":"7","size_leaf_vector":"1"}},{"base_weights":[5.25471E-4,1.4475475E-2,-2.6863924E-1,-2.967297E-4,4.1506104E-2,3.595997E-2,-5.578918E-2],"categories":[],"categories_nodes":[],"categories_segments":[],"categories_sizes":[],"default_left":[0,0,0,0,0,0,0],"id":69,"left_children":[1,3,5,-1,-1,-1,-1],"loss_changes":[9.8244655E-1,1.7391146E0,2.54341E0,0E0,0E0,0E0,0E0],"parents":[2147483647,0,0,1,1,2,2],"right_children":[2,4,6,-1,-1,-1,-1],"split_conditions":[5.4566196E1,7.3561295E1,1.3990297E3,-2.967297E-4,4.1506104E-2,3.595997E-2,-5.578918E-2],"split_indices":[5,0,3,0,0,0,0],"split_type":[0,0,0,0,0,0,0],"sum_hessian":[2.596118E2,2.4771945E2,1.189234E1,2.3833421E2,9.385239E0,3.6725602E0,8.219779E0],"tree_param":{"num_deleted":"0","num_feature":"6","num_nodes":"7","size_leaf_vector":"1"}},{"base_weights":[5.553337E-4,3.034855E-2,-1.2266702E-1,1.2788286E-3,9.4157375E-2,-7.9631545E-2,-1.2287076E-3],"categories":[],"categories_nodes":[],"categories_segments":[],"categories_sizes":[],"default_left":[0,0,0,0,0,0,0],"id":70,"left_children":[1,3,5,-1,-1,-1,-1],"loss_changes":[9.6035707E-1,3.3585465E0,3.777594E0,0E0,0E0,0E0,0E0],"parents":[2147483647,0,0,1,1,2,2],"right_children":[2,4,6,-1,-1,-1,-1],"split_conditions":[1.6051566E3,1.6010471E3,3.944421E1,1.2788286E-3,9.4157375E-2,-7.9631545E-2,-1.2287076E-3],"split_indices":[3,3,0,0,0,0,0],"split_type":[0,0,0,0,0,0,0],"sum_hessian":[2.5957877E2,2.096439E2,4.993487E1,2.066751E2,2.9688115E0,6.155227E0,4.3779644E1],"tree_param":{"num_deleted":"0","num_feature":"6","num_nodes":"7","size_leaf_vector":"1"}},{"base_weights":[5.567761E-4,8.322676E-3,-4.5461866E-1,-4.4130938E-4,8.193611E-2,-8.383456E-2,1.0539605E-2],"categories":[],"categories_nodes":[],"categories_segments":[],"categories_sizes":[],"default_left":[0,0,0,0,0,0,0],"id":71,"left_children":[1,3,5,-1,-1,-1,-1],"loss_changes":[9.2471945E-1,2.659689E0,1.0313963E0,0E0,0E0,0E0,0E0],"parents":[2147483647,0,0,1,1,2,2],"right_children":[2,4,6,-1,-1,-1,-1],"split_conditions":[4.7856655E1,4.1267902E1,2.278005E1,-4.4130938E-4,8.193611E-2,-8.383456E-2,1.0539605E-2],"split_indices":[2,2,5,0,0,0,0],"split_type":[0,0,0,0,0,0,0],"sum_hessian":[2.5953064E2,2.5614224E2,3.3884125E0,2.5316139E2,2.9808447E0,1.7157553E0,1.672657E0],"tree_param":{"num_deleted":"0","num_feature":"6","num_nodes":"7","size_leaf_vector":"1"}},{"base_weights":[5.296505E-4,1.655286E-1,-2.072919E-2,6.2148876E-2,-9.247102E-3,-5.1630974E-2,-5.248907E-4],"categories":[],"categories_nodes":[],"categories_segments":[],"categories_sizes":[],"default_left":[0,0,0,0,0,0,0],"id":72,"left_children":[1,3,5,-1,-1,-1,-1],"loss_changes":[9.172801E-1,3.5686014E0,1.7746793E0,0E0,0E0,0E0,0E0],"parents":[2147483647,0,0,1,1,2,2],"right_children":[2,4,6,-1,-1,-1,-1],"split_conditions":[1.1290828E1,1.4729667E3,1.1826693E1,6.2148876E-2,-9.247102E-3,-5.1630974E-2,-5.248907E-4],"split_indices":[5,4,5,0,0,0,0],"split_type":[0,0,0,0,0,0,0],"sum_hessian":[2.5952753E2,2.8847034E1,2.306805E2,9.915173E0,1.8931862E1,6.007445E0,2.2467305E2],"tree_param":{"num_deleted":"0","num_feature":"6","num_nodes":"7","size_leaf_vector":"1"}},{"base_weights":[4.9403356E-4,-3.8088694E-1,9.184306E-3,3.8323612E-3,-8.9433156E-2,5.2115526E-2,-3.4623803E-4],"categories":[],"categories_nodes":[],"categories_segments":[],"categories_sizes":[],"default_left":[0,0,0,0,0,0,0],"id":73,"left_children":[1,3,5,-1,-1,-1,-1],"loss_changes":[8.6650264E-1,1.2879782E0,1.6565084E0,0E0,0E0,0E0,0E0],"parents":[2147483647,0,0,1,1,2,2],"right_children":[2,4,6,-1,-1,-1,-1],"split_conditions":[-3.539669E1,1.4691193E3,-3.1509941E1,3.8323612E-3,-8.9433156E-2,5.2115526E-2,-3.4623803E-4],"split_indices":[2,3,1,0,0,0,0],"split_type":[0,0,0,0,0,0,0],"sum_hessian":[2.5938782E2,4.8246417E0,2.5456317E2,3.1654868E0,1.6591551E0,5.1673293E0,2.4939584E2],"tree_param":{"num_deleted":"0","num_feature":"6","num_nodes":"7","size_leaf_vector":"1"}},{"base_weights":[3.1195677E-4,1.3094729E-2,-2.4698359E-1,-3.0511317E-3,1.5128824E-2,-3.3862042E-4,-1.04249574E-1],"categories":[],"categories_nodes":[],"categories_segments":[],"categories_sizes":[],"default_left":[0,0,0,0,0,0,0],"id":74,"left_children":[1,3,5,-1,-1,-1,-1],"loss_changes":[8.259295E-1,1.5015671E0,2.4850075E0,0E0,0E0,0E0,0E0],"parents":[2147483647,0,0,1,1,2,2],"right_children":[2,4,6,-1,-1,-1,-1],"split_conditions":[5.4566196E1,2.9238035E1,7.015883E1,-3.0511317E-3,1.5128824E-2,-3.3862042E-4,-1.04249574E-1],"split_indices":[5,5,0,0,0,0,0],"split_type":[0,0,0,0,0,0,0],"sum_hessian":[2.5925418E2,2.4741241E2,1.1841764E1,1.8866092E2,5.875149E1,9.834541E0,2.007223E0],"tree_param":{"num_deleted":"0","num_feature":"6","num_nodes":"7","size_leaf_vector":"1"}},{"base_weights":[-8.644398E-5,2.4445024E-1,-1.3345878E-2,5.6674957E-2,-3.2187123E-2,-6.1540462E-2,6.730986E-4],"categories":[],"categories_nodes":[],"categories_segments":[],"categories_sizes":[],"default_left":[0,0,0,0,0,0,0],"id":75,"left_children":[1,3,5,-1,-1,-1,-1],"loss_changes":[8.46877E-1,2.6344342E0,2.99877E0,0E0,0E0,0E0,0E0],"parents":[2147483647,0,0,1,1,2,2],"right_children":[2,4,6,-1,-1,-1,-1],"split_conditions":[1.2962095E3,3.1448057E1,1.3116691E3,5.6674957E-2,-3.2187123E-2,-6.1540462E-2,6.730986E-4],"split_indices":[4,2,3,0,0,0,0],"split_type":[0,0,0,0,0,0,0],"sum_hessian":[2.591807E2,1.2433849E1,2.4674683E2,7.9236584E0,4.5101914E0,7.0058274E0,2.39741E2],"tree_param":{"num_deleted":"0","num_feature":"6","num_nodes":"7","size_leaf_vector":"1"}},{"base_weights":[-2.0428654E-4,-8.870974E-2,3.601625E-2,1.1879757E-2,-2.993833E-2,3.6539834E-2,-2.0879188E-3],"categories":[],"categories_nodes":[],"categories_segments":[],"categories_sizes":[],"default_left":[0,0,0,0,0,0,0],"id":76,"left_children":[1,3,5,-1,-1,-1,-1],"loss_changes":[8.368919E-1,3.349791E0,3.4793465E0,0E0,0E0,0E0,0E0],"parents":[2147483647,0,0,1,1,2,2],"right_children":[2,4,6,-1,-1,-1,-1],"split_conditions":[-5.2021537E0,2.1333315E1,5.355599E-1,1.1879757E-2,-2.993833E-2,3.6539834E-2,-2.0879188E-3],"split_indices":[2,5,2,0,0,0,0],"split_type":[0,0,0,0,0,0,0],"sum_hessian":[2.5906583E2,7.48121E1,1.8425372E2,3.7908974E1,3.6903126E1,2.634037E1,1.5791335E2],"tree_param":{"num_deleted":"0","num_feature":"6","num_nodes":"7","size_leaf_vector":"1"}},{"base_weights":[-1.088327E-4,1.0703994E-1,-3.2249525E-2,4.814895E-2,6.16591E-4,-5.974416E-2,-2.5731485E-4],"categories":[],"categories_nodes":[],"categories_segments":[],"categories_sizes":[],"default_left":[0,0,0,0,0,0,0],"id":77,"left_children":[1,3,5,-1,-1,-1,-1],"loss_changes":[8.990704E-1,2.272457E0,3.3668466E0,0E0,0E0,0E0,0E0],"parents":[2147483647,0,0,1,1,2,2],"right_children":[2,4,6,-1,-1,-1,-1],"split_conditions":[1.3999902E3,1.894527E1,1.4022034E3,4.814895E-2,6.16591E-4,-5.974416E-2,-2.5731485E-4],"split_indices":[4,5,3,0,0,0,0],"split_type":[0,0,0,0,0,0,0],"sum_hessian":[2.590642E2,5.9240685E1,1.9982352E2,1.1771416E1,4.746927E1,9.014215E0,1.9080931E2],"tree_param":{"num_deleted":"0","num_feature":"6","num_nodes":"7","size_leaf_vector":"1"}},{"base_weights":[-1.3281062E-4,8.1351176E-2,-3.9008487E-2,7.630364E-2,3.8709433E-3,-5.9363723E-2,-8.6638314E-4],"categories":[],"categories_nodes":[],"categories_segments":[],"categories_sizes":[],"default_left":[0,0,0,0,0,0,0],"id":78,"left_children":[1,3,5,-1,-1,-1,-1],"loss_changes":[8.265379E-1,2.420266E0,2.967774E0,0E0,0E0,0E0,0E0],"parents":[2147483647,0,0,1,1,2,2],"right_children":[2,4,6,-1,-1,-1,-1],"split_conditions":[1.4195037E3,3.6907265E1,1.4270958E3,7.630364E-2,3.8709433E-3,-5.9363723E-2,-8.6638314E-4],"split_indices":[3,0,3,0,0,0,0],"split_type":[0,0,0,0,0,0,0],"sum_hessian":[2.5892136E2,8.327762E1,1.7564372E2,3.9080534E0,7.936957E1,8.148329E0,1.6749539E2],"tree_param":{"num_deleted":"0","num_feature":"6","num_nodes":"7","size_leaf_vector":"1"}},{"base_weights":[-3.4448134E-5,-5.9655022E-2,5.14322E-3,3.816691E-2,-8.120101E-4],"categories":[],"categories_nodes":[],"categories_segments":[],"categories_sizes":[],"default_left":[0,0,0,0,0],"id":79,"left_children":[1,-1,3,-1,-1],"loss_changes":[8.051822E-1,0E0,1.2938513E0,0E0,0E0],"parents":[2147483647,0,0,2,2],"right_children":[2,-1,4,-1,-1],"split_conditions":[5.3712587E0,-5.9655022E-2,8.588201E0,3.816691E-2,-8.120101E-4],"split_indices":[5,0,5,0,0],"split_type":[0,0,0,0,0],"sum_hessian":[2.5870477E2,1.2433488E0,2.5746143E2,7.8154745E0,2.4964594E2],"tree_param":{"num_deleted":"0","num_feature":"6","num_nodes":"5","size_leaf_vector":"1"}},{"base_weights":[-1.1341595E-4,-9.995248E-2,3.0745143E-2,1.3419661E-2,-4.1755646E-2,3.8580205E-2,-4.650956E-4],"categories":[],"categories_nodes":[],"categories_segments":[],"categories_sizes":[],"default_left":[0,0,0,0,0,0,0],"id":80,"left_children":[1,3,5,-1,-1,-1,-1],"loss_changes":[8.030228E-1,4.6325636E0,2.504121E0,0E0,0E0,0E0,0E0],"parents":[2147483647,0,0,1,1,2,2],"right_children":[2,4,6,-1,-1,-1,-1],"split_conditions":[-1.0657449E1,4.060749E1,-4.85307E0,1.3419661E-2,-4.1755646E-2,3.8580205E-2,-4.650956E-4],"split_indices":[1,0,1,0,0,0,0],"split_type":[0,0,0,0,0,0,0],"sum_hessian":[2.5864896E2,6.0540043E1,1.981089E2,3.5180897E1,2.5359148E1,1.7061916E1,1.8104698E2],"tree_param":{"num_deleted":"0","num_feature":"6","num_nodes":"7","size_leaf_vector":"1"}},{"base_weights":[-5.407187E-5,-4.379286E-2,6.956435E-2,3.893782E-3,-3.15176E-2,5.8685698E-2,-2.129191E-3],"categories":[],"categories_nodes":[],"categories_segments":[],"categories_sizes":[],"default_left":[0,0,0,0,0,0,0],"id":81,"left_children":[1,3,5,-1,-1,-1,-1],"loss_changes":[7.935602E-1,3.6057203E0,4.738553E0,0E0,0E0,0E0,0E0],"parents":[2147483647,0,0,1,1,2,2],"right_children":[2,4,6,-1,-1,-1,-1],"split_conditions":[5.6124653E1,5.173089E1,7.5134677E-1,3.893782E-3,-3.15176E-2,5.8685698E-2,-2.129191E-3],"split_indices":[0,0,2,0,0,0,0],"split_type":[0,0,0,0,0,0,0],"sum_hessian":[2.5860828E2,1.590523E2,9.955597E1,1.2254975E2,3.650256E1,1.4057878E1,8.549809E1],"tree_param":{"num_deleted":"0","num_feature":"6","num_nodes":"7","size_leaf_vector":"1"}},{"base_weights":[7.587217E-5,-9.4182484E-2,3.3296213E-2,-1.1510937E-3,-6.28018E-2,2.3961192E-2,-2.8337534E-3],"categories":[],"categories_nodes":[],"categories_segments":[],"categories_sizes":[],"default_left":[0,0,0,0,0,0,0],"id":82,"left_children":[1,3,5,-1,-1,-1,-1],"loss_changes":[8.15512E-1,2.9880528E0,2.4554906E0,0E0,0E0,0E0,0E0],"parents":[2147483647,0,0,1,1,2,2],"right_children":[2,4,6,-1,-1,-1,-1],"split_conditions":[4.4070248E1,4.2964306E1,5.0469414E1,-1.1510937E-3,-6.28018E-2,2.3961192E-2,-2.8337534E-3],"split_indices":[0,0,0,0,0,0,0],"split_type":[0,0,0,0,0,0,0],"sum_hessian":[2.5843777E2,6.686943E1,1.9156833E2,5.8787037E1,8.082395E0,4.3400333E1,1.48168E2],"tree_param":{"num_deleted":"0","num_feature":"6","num_nodes":"7","size_leaf_vector":"1"}},{"base_weights":[-9.9076846E-5,2.7090903E-2,-1.12067044E-1,1.0799863E-3,8.738501E-2,-7.5201675E-2,-8.180557E-4],"categories":[],"categories_nodes":[],"categories_segments":[],"categories_sizes":[],"default_left":[0,0,0,0,0,0,0],"id":83,"left_children":[1,3,5,-1,-1,-1,-1],"loss_changes":[7.92389E-1,2.8794882E0,3.3748078E0,0E0,0E0,0E0,0E0],"parents":[2147483647,0,0,1,1,2,2],"right_children":[2,4,6,-1,-1,-1,-1],"split_conditions":[1.6051566E3,1.6010471E3,3.944421E1,1.0799863E-3,8.738501E-2,-7.5201675E-2,-8.180557E-4],"split_indices":[3,3,0,0,0,0,0],"split_type":[0,0,0,0,0,0,0],"sum_hessian":[2.5827975E2,2.0842456E2,4.9855175E1,2.0548396E2,2.9406097E0,6.0915956E0,4.376358E1],"tree_param":{"num_deleted":"0","num_feature":"6","num_nodes":"7","size_leaf_vector":"1"}},{"base_weights":[-3.984188E-5,2.7914256E-1,-1.0762128E-2,6.1755426E-2,-3.82072E-2,2.5795049E-5,-6.660896E-2],"categories":[],"categories_nodes":[],"categories_segments":[],"categories_sizes":[],"default_left":[0,0,0,0,0,0,0],"id":84,"left_children":[1,3,5,-1,-1,-1,-1],"loss_changes":[7.789581E-1,2.3895192E0,1.809879E0,0E0,0E0,0E0,0E0],"parents":[2147483647,0,0,1,1,2,2],"right_children":[2,4,6,-1,-1,-1,-1],"split_conditions":[1.2810673E3,6.949026E1,4.4350067E1,6.1755426E-2,-3.82072E-2,2.5795049E-5,-6.660896E-2],"split_indices":[3,0,1,0,0,0,0],"split_type":[0,0,0,0,0,0,0],"sum_hessian":[2.582152E2,8.624342E0,2.4959088E2,5.748349E0,2.8759928E0,2.4644621E2,3.1446676E0],"tree_param":{"num_deleted":"0","num_feature":"6","num_nodes":"7","size_leaf_vector":"1"}},{"base_weights":[-1.9390578E-4,-2.9462786E-2,1.00318946E-1,1.3591301E-3,-5.9827436E-2,3.8311522E-2,-7.0082895E-3],"categories":[],"categories_nodes":[],"categories_segments":[],"categories_sizes":[],"default_left":[0,0,0,0,0,0,0],"id":85,"left_children":[1,3,5,-1,-1,-1,-1],"loss_changes":[7.651339E-1,4.9408865E0,2.853379E0,0E0,0E0,0E0,0E0],"parents":[2147483647,0,0,1,1,2,2],"right_children":[2,4,6,-1,-1,-1,-1],"split_conditions":[6.1353687E1,5.9671406E1,6.561356E1,1.3591301E-3,-5.9827436E-2,3.8311522E-2,-7.0082895E-3],"split_indices":[0,0,0,0,0,0,0],"split_type":[0,0,0,0,0,0,0],"sum_hessian":[2.5807697E2,2.004219E2,5.7655064E1,1.872266E2,1.3195318E1,2.1208862E1,3.64462E1],"tree_param":{"num_deleted":"0","num_feature":"6","num_nodes":"7","size_leaf_vector":"1"}},{"base_weights":[-2.7781227E-4,-4.239853E-2,6.6915095E-2,3.212838E-3,-2.8653234E-2,9.747157E-2,1.8146549E-3],"categories":[],"categories_nodes":[],"categories_segments":[],"categories_sizes":[],"default_left":[0,0,0,0,0,0,0],"id":86,"left_children":[1,3,5,-1,-1,-1,-1],"loss_changes":[7.3558885E-1,2.915872E0,4.4160976E0,0E0,0E0,0E0,0E0],"parents":[2147483647,0,0,1,1,2,2],"right_children":[2,4,6,-1,-1,-1,-1],"split_conditions":[5.6124653E1,5.173089E1,5.659242E1,3.212838E-3,-2.8653234E-2,9.747157E-2,1.8146549E-3],"split_indices":[0,0,0,0,0,0,0],"split_type":[0,0,0,0,0,0,0],"sum_hessian":[2.5790335E2,1.5875488E2,9.914848E1,1.2229131E2,3.646356E1,4.086877E0,9.506161E1],"tree_param":{"num_deleted":"0","num_feature":"6","num_nodes":"7","size_leaf_vector":"1"}},{"base_weights":[4.8183974E-5,8.374697E-2,-3.509679E-2,1.6746368E-3,1.02354884E-1,7.858594E-5,-5.221696E-2],"categories":[],"categories_nodes":[],"categories_segments":[],"categories_sizes":[],"default_left":[0,0,0,0,0,0,0],"id":87,"left_children":[1,3,5,-1,-1,-1,-1],"loss_changes":[7.641146E-1,4.8198695E0,3.1978295E0,0E0,0E0,0E0,0E0],"parents":[2147483647,0,0,1,1,2,2],"right_children":[2,4,6,-1,-1,-1,-1],"split_conditions":[1.4127661E3,1.4085878E3,4.5786682E1,1.6746368E-3,1.02354884E-1,7.858594E-5,-5.221696E-2],"split_indices":[4,4,5,0,0,0,0],"split_type":[0,0,0,0,0,0,0],"sum_hessian":[2.577631E2,7.581782E1,1.8194527E2,7.172239E1,4.0954323E0,1.7039096E2,1.1554313E1],"tree_param":{"num_deleted":"0","num_feature":"6","num_nodes":"7","size_leaf_vector":"1"}},{"base_weights":[2.5014984E-4,-3.6281712E-2,8.203475E-2,-3.078199E-4,-5.331195E-2,4.5778394E-2,-8.800071E-3],"categories":[],"categories_nodes":[],"categories_segments":[],"categories_sizes":[],"default_left":[0,0,0,0,0,0,0],"id":88,"left_children":[1,3,5,-1,-1,-1,-1],"loss_changes":[7.756221E-1,2.958711E0,5.1614175E0,0E0,0E0,0E0,0E0],"parents":[2147483647,0,0,1,1,2,2],"right_children":[2,4,6,-1,-1,-1,-1],"split_conditions":[2.7949352E1,2.6863506E1,3.1428522E1,-3.078199E-4,-5.331195E-2,4.5778394E-2,-8.800071E-3],"split_indices":[5,5,5,0,0,0,0],"split_type":[0,0,0,0,0,0,0],"sum_hessian":[2.576051E2,1.7845052E2,7.9154594E1,1.6821495E2,1.0235558E1,2.4132849E1,5.502174E1],"tree_param":{"num_deleted":"0","num_feature":"6","num_nodes":"7","size_leaf_vector":"1"}},{"base_weights":[1.6867508E-4,-3.6438575E-1,8.398985E-3,3.7682117E-3,-8.634444E-2,5.017844E-2,-5.2365893E-4],"categories":[],"categories_nodes":[],"categories_segments":[],"categories_sizes":[],"default_left":[0,0,0,0,0,0,0],"id":89,"left_children":[1,3,5,-1,-1,-1,-1],"loss_changes":[7.786714E-1,1.1822386E0,1.7099098E0,0E0,0E0,0E0,0E0],"parents":[2147483647,0,0,1,1,2,2],"right_children":[2,4,6,-1,-1,-1,-1],"split_conditions":[-3.539669E1,1.4691193E3,-3.073734E1,3.7682117E-3,-8.634444E-2,5.017844E-2,-5.2365893E-4],"split_indices":[2,3,1,0,0,0,0],"split_type":[0,0,0,0,0,0,0],"sum_hessian":[2.5750284E2,4.7297335E0,2.5277312E2,3.1314037E0,1.59833E0,5.835178E0,2.4693793E2],"tree_param":{"num_deleted":"0","num_feature":"6","num_nodes":"7","size_leaf_vector":"1"}},{"base_weights":[2.1820533E-5,-8.5043594E-2,3.478732E-2,-3.4678722E-4,-5.5614363E-2,6.802567E-2,9.456693E-4],"categories":[],"categories_nodes":[],"categories_segments":[],"categories_sizes":[],"default_left":[0,0,0,0,0,0,0],"id":90,"left_children":[1,3,5,-1,-1,-1,-1],"loss_changes":[7.670439E-1,2.8899019E0,3.0039613E0,0E0,0E0,0E0,0E0],"parents":[2147483647,0,0,1,1,2,2],"right_children":[2,4,6,-1,-1,-1,-1],"split_conditions":[-5.2021537E0,-7.798591E0,-3.7173615E0,-3.4678722E-4,-5.5614363E-2,6.802567E-2,9.456693E-4],"split_indices":[2,2,2,0,0,0,0],"split_type":[0,0,0,0,0,0,0],"sum_hessian":[2.5736902E2,7.424866E1,1.8312036E2,6.4148125E1,1.0100533E1,5.938622E0,1.7718175E2],"tree_param":{"num_deleted":"0","num_feature":"6","num_nodes":"7","size_leaf_vector":"1"}},{"base_weights":[7.995916E-5,1.4961347E-1,-1.9116582E-2,5.6649256E-2,-8.227913E-3,-4.085876E-2,-3.0333115E-4],"categories":[],"categories_nodes":[],"categories_segments":[],"categories_sizes":[],"default_left":[0,0,0,0,0,0,0],"id":91,"left_children":[1,3,5,-1,-1,-1,-1],"loss_changes":[7.444007E-1,2.8987577E0,1.4383805E0,0E0,0E0,0E0,0E0],"parents":[2147483647,0,0,1,1,2,2],"right_children":[2,4,6,-1,-1,-1,-1],"split_conditions":[1.1290828E1,1.4729667E3,1.2076629E1,5.6649256E-2,-8.227913E-3,-4.085876E-2,-3.0333115E-4],"split_indices":[5,4,5,0,0,0,0],"split_type":[0,0,0,0,0,0,0],"sum_hessian":[2.5732913E2,2.8503593E1,2.2882555E2,9.672389E0,1.8831205E1,8.106829E0,2.2071872E2],"tree_param":{"num_deleted":"0","num_feature":"6","num_nodes":"7","size_leaf_vector":"1"}},{"base_weights":[1.13389004E-4,6.9071716E-3,-4.007783E-1,-5.3597294E-4,7.810506E-2,-7.542416E-2,1.0759277E-2],"categories":[],"categories_nodes":[],"categories_segments":[],"categories_sizes":[],"default_left":[0,0,0,0,0,0,0],"id":92,"left_children":[1,3,5,-1,-1,-1,-1],"loss_changes":[7.059491E-1,2.4244623E0,8.573029E-1,0E0,0E0,0E0,0E0],"parents":[2147483647,0,0,1,1,2,2],"right_children":[2,4,6,-1,-1,-1,-1],"split_conditions":[4.7856655E1,4.1267902E1,2.278005E1,-5.3597294E-4,7.810506E-2,-7.542416E-2,1.0759277E-2],"split_indices":[2,2,5,0,0,0,0],"split_type":[0,0,0,0,0,0,0],"sum_hessian":[2.5718344E2,2.5386406E2,3.3193822E0,2.5088173E2,2.982338E0,1.6727198E0,1.6466624E0],"tree_param":{"num_deleted":"0","num_feature":"6","num_nodes":"7","size_leaf_vector":"1"}},{"base_weights":[1.4913389E-4,8.744203E-2,-3.0771906E-2,8.546599E-2,5.0474884E-4,-8.623692E-2,-4.9249385E-4],"categories":[],"categories_nodes":[],"categories_segments":[],"categories_sizes":[],"default_left":[0,0,0,0,0,0,0],"id":93,"left_children":[1,3,5,-1,-1,-1,-1],"loss_changes":[6.995354E-1,4.2809386E0,4.1093116E0,0E0,0E0,0E0,0E0],"parents":[2147483647,0,0,1,1,2,2],"right_children":[2,4,6,-1,-1,-1,-1],"split_conditions":[1.4063418E3,1.379466E1,1.4085878E3,8.546599E-2,5.0474884E-4,-8.623692E-2,-4.9249385E-4],"split_indices":[4,5,4,0,0,0,0],"split_type":[0,0,0,0,0,0,0],"sum_hessian":[2.5716833E2,6.6789E1,1.9037933E2,5.568167E0,6.1220837E1,4.7632318E0,1.856161E2],"tree_param":{"num_deleted":"0","num_feature":"6","num_nodes":"7","size_leaf_vector":"1"}},{"base_weights":[1.629785E-4,3.16411E-1,-8.31455E-3,7.104298E-2,-6.982961E-2,-1.5305084E-2,2.9591764E-3],"categories":[],"categories_nodes":[],"categories_segments":[],"categories_sizes":[],"default_left":[0,0,0,0,0,0,0],"id":94,"left_children":[1,3,5,-1,-1,-1,-1],"loss_changes":[6.9442457E-1,3.1996608E0,1.3886071E0,0E0,0E0,0E0,0E0],"parents":[2147483647,0,0,1,1,2,2],"right_children":[2,4,6,-1,-1,-1,-1],"split_conditions":[3.0436817E1,-1.5147485E1,-1.18942995E1,7.104298E-2,-6.982961E-2,-1.5305084E-2,2.9591764E-3],"split_indices":[0,2,1,0,0,0,0],"split_type":[0,0,0,0,0,0,0],"sum_hessian":[2.5703558E2,5.762075E0,2.512735E2,4.366425E0,1.3956503E0,5.1519783E1,1.9975371E2],"tree_param":{"num_deleted":"0","num_feature":"6","num_nodes":"7","size_leaf_vector":"1"}},{"base_weights":[1.10795925E-4,-3.504374E-1,7.913521E-3,2.7620695E-3,-8.2760945E-2,4.5960274E-2,-4.4196448E-4],"categories":[],"categories_nodes":[],"categories_segments":[],"categories_sizes":[],"default_left":[0,0,0,0,0,0,0],"id":95,"left_children":[1,3,5,-1,-1,-1,-1],"loss_changes":[7.0847344E-1,1.0402818E0,1.4134609E0,0E0,0E0,0E0,0E0],"parents":[2147483647,0,0,1,1,2,2],"right_children":[2,4,6,-1,-1,-1,-1],"split_conditions":[-3.539669E1,1.4691193E3,-3.073734E1,2.7620695E-3,-8.2760945E-2,4.5960274E-2,-4.4196448E-4],"split_indices":[2,3,1,0,0,0,0],"split_type":[0,0,0,0,0,0,0],"sum_hessian":[2.5700388E2,4.6398535E0,2.5236401E2,3.1144361E0,1.5254173E0,5.7436404E0,2.4662036E2],"tree_param":{"num_deleted":"0","num_feature":"6","num_nodes":"7","size_leaf_vector":"1"}},{"base_weights":[-3.6783633E-5,-5.471282E-2,4.7226995E-3,3.506931E-2,-7.383476E-4],"categories":[],"categories_nodes":[],"categories_segments":[],"categories_sizes":[],"default_left":[0,0,0,0,0],"id":96,"left_children":[1,-1,3,-1,-1],"loss_changes":[6.740496E-1,0E0,1.0774921E0,0E0,0E0],"parents":[2147483647,0,0,2,2],"right_children":[2,-1,4,-1,-1],"split_conditions":[5.3712587E0,-5.471282E-2,8.588201E0,3.506931E-2,-7.383476E-4],"split_indices":[5,0,5,0,0],"split_type":[0,0,0,0,0],"sum_hessian":[2.5687198E2,1.2325959E0,2.5563937E2,7.6973157E0,2.4794206E2],"tree_param":{"num_deleted":"0","num_feature":"6","num_nodes":"5","size_leaf_vector":"1"}},{"base_weights":[-1.0932572E-4,3.332113E-2,-7.6338485E-2,-3.9912895E-3,3.2808773E-2,-1.1887409E-1,-3.2811926E-3],"categories":[],"categories_nodes":[],"categories_segments":[],"categories_sizes":[],"default_left":[0,0,0,0,0,0,0],"id":97,"left_children":[1,3,5,-1,-1,-1,-1],"loss_changes":[6.595521E-1,3.8968937E0,3.7812743E0,0E0,0E0,0E0,0E0],"parents":[2147483647,0,0,1,1,2,2],"right_children":[2,4,6,-1,-1,-1,-1],"split_conditions":[1.5628093E3,1.5011968E3,1.5646455E3,-3.9912895E-3,3.2808773E-2,-1.1887409E-1,-3.2811926E-3],"split_indices":[3,4,3,0,0,0,0],"split_type":[0,0,0,0,0,0,0],"sum_hessian":[2.568146E2,1.7891428E2,7.7900345E1,1.4400194E2,3.491233E1,1.9426105E0,7.595773E1],"tree_param":{"num_deleted":"0","num_feature":"6","num_nodes":"7","size_leaf_vector":"1"}},{"base_weights":[-4.5118053E-4,7.956746E-2,-3.3999186E-2,1.7051985E-3,9.6352E-2,-1.0405209E-4,-4.8571896E-2],"categories":[],"categories_nodes":[],"categories_segments":[],"categories_sizes":[],"default_left":[0,0,0,0,0,0,0],"id":98,"left_children":[1,3,5,-1,-1,-1,-1],"loss_changes":[6.94775E-1,4.208585E0,2.7143264E0,0E0,0E0,0E0,0E0],"parents":[2147483647,0,0,1,1,2,2],"right_children":[2,4,6,-1,-1,-1,-1],"split_conditions":[1.4127661E3,1.4085878E3,4.5786682E1,1.7051985E-3,9.6352E-2,-1.0405209E-4,-4.8571896E-2],"split_indices":[4,4,5,0,0,0,0],"split_type":[0,0,0,0,0,0,0],"sum_hessian":[2.568054E2,7.545603E1,1.8134935E2,7.142403E1,4.0320067E0,1.6995154E2,1.1397808E1],"tree_param":{"num_deleted":"0","num_feature":"6","num_nodes":"7","size_leaf_vector":"1"}},{"base_weights":[-2.0729618E-4,-3.2595906E-2,8.583771E-2,2.5223944E-2,-5.697287E-3,6.4935364E-2,-7.678253E-3],"categories":[],"categories_nodes":[],"categories_segments":[],"categories_sizes":[],"default_left":[0,0,0,0,0,0,0],"id":99,"left_children":[1,3,5,-1,-1,-1,-1],"loss_changes":[7.207904E-1,1.3190522E0,6.5316224E0,0E0,0E0,0E0,0E0],"parents":[2147483647,0,0,1,1,2,2],"right_children":[2,4,6,-1,-1,-1,-1],"split_conditions":[2.9238035E1,3.7200314E1,3.1428522E1,2.5223944E-2,-5.697287E-3,6.4935364E-2,-7.678253E-3],"split_indices":[5,0,5,0,0,0,0],"split_type":[0,0,0,0,0,0,0],"sum_hessian":[2.5663324E2,1.8690181E2,6.973143E1,1.3997618E1,1.7290419E2,1.4946244E1,5.4785183E1],"tree_param":{"num_deleted":"0","num_feature":"6","num_nodes":"7","size_leaf_vector":"1"}},{"base_weights":[1.2892738E-4,-3.5217822E-1,7.90202E-3,7.418555E-4,-8.053402E-2,4.677404E-2,-3.2496342E-4],"categories":[],"categories_nodes":[],"categories_segments":[],"categories_sizes":[],"default_left":[0,0,0,0,0,0,0],"id":100,"left_children":[1,3,5,-1,-1,-1,-1],"loss_changes":[7.079594E-1,9.1537976E-1,1.2984959E0,0E0,0E0,0E0,0E0],"parents":[2147483647,0,0,1,1,2,2],"right_children":[2,4,6,-1,-1,-1,-1],"split_conditions":[-3.539669E1,1.4691193E3,-3.1509941E1,7.418555E-4,-8.053402E-2,4.677404E-2,-3.2496342E-4],"split_indices":[2,3,1,0,0,0,0],"split_type":[0,0,0,0,0,0,0],"sum_hessian":[2.5650314E2,4.5806947E0,2.5192245E2,3.102446E0,1.4782488E0,4.995357E0,2.469271E2],"tree_param":{"num_deleted":"0","num_feature":"6","num_nodes":"7","size_leaf_vector":"1"}},{"base_weights":[-1.6202253E-5,-9.262782E-2,2.8483642E-2,1.2396352E-2,-3.837585E-2,-3.801626E-2,5.2367323E-3],"categories":[],"categories_nodes":[],"categories_segments":[],"categories_sizes":[],"default_left":[0,0,0,0,0,0,0],"id":101,"left_children":[1,3,5,-1,-1,-1,-1],"loss_changes":[6.819616E-1,3.8814468E0,1.9482404E0,0E0,0E0,0E0,0E0],"parents":[2147483647,0,0,1,1,2,2],"right_children":[2,4,6,-1,-1,-1,-1],"split_conditions":[-1.0657449E1,4.060749E1,4.1012928E1,1.2396352E-2,-3.837585E-2,-3.801626E-2,5.2367323E-3],"split_indices":[1,0,0,0,0,0,0],"split_type":[0,0,0,0,0,0,0],"sum_hessian":[2.5637625E2,5.980074E1,1.965755E2,3.461933E1,2.5181408E1,1.0030908E1,1.865446E2],"tree_param":{"num_deleted":"0","num_feature":"6","num_nodes":"7","size_leaf_vector":"1"}},{"base_weights":[-2.3804828E-4,8.9004256E-2,-3.185951E-2,8.104077E-2,1.291127E-3,-7.8807294E-2,-8.173116E-4],"categories":[],"categories_nodes":[],"categories_segments":[],"categories_sizes":[],"default_left":[0,0,0,0,0,0,0],"id":102,"left_children":[1,3,5,-1,-1,-1,-1],"loss_changes":[7.290849E-1,3.7000892E0,3.4104474E0,0E0,0E0,0E0,0E0],"parents":[2147483647,0,0,1,1,2,2],"right_children":[2,4,6,-1,-1,-1,-1],"split_conditions":[1.4063418E3,1.379466E1,1.4085878E3,8.104077E-2,1.291127E-3,-7.8807294E-2,-8.173116E-4],"split_indices":[4,5,4,0,0,0,0],"split_type":[0,0,0,0,0,0,0],"sum_hessian":[2.5635522E2,6.659518E1,1.8976004E2,5.4333925E0,6.1161785E1,4.7831073E0,1.8497693E2],"tree_param":{"num_deleted":"0","num_feature":"6","num_nodes":"7","size_leaf_vector":"1"}},{"base_weights":[-1.7648016E-4,6.3366913E-3,-3.852033E-1,-4.9556594E-4,7.170157E-2,-7.126919E-2,8.970289E-3],"categories":[],"categories_nodes":[],"categories_segments":[],"categories_sizes":[],"default_left":[0,0,0,0,0,0,0],"id":103,"left_children":[1,3,5,-1,-1,-1,-1],"loss_changes":[6.474424E-1,2.041233E0,7.3187035E-1,0E0,0E0,0E0,0E0],"parents":[2147483647,0,0,1,1,2,2],"right_children":[2,4,6,-1,-1,-1,-1],"split_conditions":[4.7856655E1,4.1267902E1,2.278005E1,-4.9556594E-4,7.170157E-2,-7.126919E-2,8.970289E-3],"split_indices":[2,2,5,0,0,0,0],"split_type":[0,0,0,0,0,0,0],"sum_hessian":[2.562037E2,2.5290901E2,3.2947044E0,2.4993076E2,2.9782538E0,1.653662E0,1.6410425E0],"tree_param":{"num_deleted":"0","num_feature":"6","num_nodes":"7","size_leaf_vector":"1"}},{"base_weights":[-1.2609441E-4,9.180827E-2,-2.7556319E-2,-1.2327258E-4,4.4340458E-2,-5.7823032E-2,-1.6282075E-4],"categories":[],"categories_nodes":[],"categories_segments":[],"categories_sizes":[],"default_left":[0,0,0,0,0,0,0],"id":104,"left_children":[1,3,5,-1,-1,-1,-1],"loss_changes":[6.5107363E-1,1.941422E0,2.8381736E0,0E0,0E0,0E0,0E0],"parents":[2147483647,0,0,1,1,2,2],"right_children":[2,4,6,-1,-1,-1,-1],"split_conditions":[1.3999902E3,1.3791953E3,1.4007446E3,-1.2327258E-4,4.4340458E-2,-5.7823032E-2,-1.6282075E-4],"split_indices":[4,3,3,0,0,0,0],"split_type":[0,0,0,0,0,0,0],"sum_hessian":[2.5617694E2,5.8330647E1,1.978463E2,4.691285E1,1.1417795E1,7.938713E0,1.899076E2],"tree_param":{"num_deleted":"0","num_feature":"6","num_nodes":"7","size_leaf_vector":"1"}},{"base_weights":[-1.626988E-4,7.237561E-2,-3.4529764E-2,1.7772978E-2,-1.625277E-2,-2.048104E-2,4.8232633E-3],"categories":[],"categories_nodes":[],"categories_segments":[],"categories_sizes":[],"default_left":[0,0,0,0,0,0,0],"id":105,"left_children":[1,3,5,-1,-1,-1,-1],"loss_changes":[6.432632E-1,2.081779E0,2.4772646E0,0E0,0E0,0E0,0E0],"parents":[2147483647,0,0,1,1,2,2],"right_children":[2,4,6,-1,-1,-1,-1],"split_conditions":[1.4195037E3,1.5538115E1,1.4850569E3,1.7772978E-2,-1.625277E-2,-2.048104E-2,4.8232633E-3],"split_indices":[3,1,4,0,0,0,0],"split_type":[0,0,0,0,0,0,0],"sum_hessian":[2.5603262E2,8.195174E1,1.740809E2,5.6744995E1,2.5206747E1,5.6454044E1,1.17626854E2],"tree_param":{"num_deleted":"0","num_feature":"6","num_nodes":"7","size_leaf_vector":"1"}},{"base_weights":[-1.9801872E-4,2.6325658E-1,-1.0237307E-2,7.1571186E-2,-2.4530174E-2,-4.0582683E-2,8.809866E-4],"categories":[],"categories_nodes":[],"categories_segments":[],"categories_sizes":[],"default_left":[0,0,0,0,0,0,0],"id":106,"left_children":[1,3,5,-1,-1,-1,-1],"loss_changes":[6.820288E-1,2.3536115E0,1.8750942E0,0E0,0E0,0E0,0E0],"parents":[2147483647,0,0,1,1,2,2],"right_children":[2,4,6,-1,-1,-1,-1],"split_conditions":[1.2810673E3,3.1448057E1,1.3116691E3,7.1571186E-2,-2.4530174E-2,-4.0582683E-2,8.809866E-4],"split_indices":[3,2,3,0,0,0,0],"split_type":[0,0,0,0,0,0,0],"sum_hessian":[2.5584698E2,8.465653E0,2.4738133E2,4.2643776E0,4.201276E0,1.0431146E1,2.3695018E2],"tree_param":{"num_deleted":"0","num_feature":"6","num_nodes":"7","size_leaf_vector":"1"}},{"base_weights":[-1.3403277E-4,2.377503E-2,-1.1212322E-1,8.506623E-4,8.367258E-2,2.972107E-2,-2.243773E-2],"categories":[],"categories_nodes":[],"categories_segments":[],"categories_sizes":[],"default_left":[0,0,0,0,0,0,0],"id":107,"left_children":[1,3,5,-1,-1,-1,-1],"loss_changes":[6.902193E-1,2.629688E0,2.1505785E0,0E0,0E0,0E0,0E0],"parents":[2147483647,0,0,1,1,2,2],"right_children":[2,4,6,-1,-1,-1,-1],"split_conditions":[1.6100896E3,1.6050403E3,4.605013E1,8.506623E-4,8.367258E-2,2.972107E-2,-2.243773E-2],"split_indices":[4,4,0,0,0,0,0],"split_type":[0,0,0,0,0,0,0],"sum_hessian":[2.5578395E2,2.1143208E2,4.435186E1,2.0852612E2,2.9059622E0,9.190626E0,3.5161232E1],"tree_param":{"num_deleted":"0","num_feature":"6","num_nodes":"7","size_leaf_vector":"1"}},{"base_weights":[2.4066865E-4,-9.6929856E-2,2.8135125E-2,1.739114E-2,-2.6440045E-2,1.5900483E-2,-3.8601558E-3],"categories":[],"categories_nodes":[],"categories_segments":[],"categories_sizes":[],"default_left":[0,0,0,0,0,0,0],"id":108,"left_children":[1,3,5,-1,-1,-1,-1],"loss_changes":[6.985831E-1,2.653369E0,1.7549924E0,0E0,0E0,0E0,0E0],"parents":[2147483647,0,0,1,1,2,2],"right_children":[2,4,6,-1,-1,-1,-1],"split_conditions":[-1.18942995E1,1.8410307E1,5.173089E1,1.739114E-2,-2.6440045E-2,1.5900483E-2,-3.8601558E-3],"split_indices":[1,5,0,0,0,0,0],"split_type":[0,0,0,0,0,0,0],"sum_hessian":[2.5572429E2,5.6484676E1,1.9923962E2,2.1567022E1,3.4917652E1,6.682134E1,1.3241827E2],"tree_param":{"num_deleted":"0","num_feature":"6","num_nodes":"7","size_leaf_vector":"1"}},{"base_weights":[2.3406053E-4,3.60262E-2,-7.526372E-2,-5.601095E-4,6.264086E-2,-5.1251985E-2,1.266843E-3],"categories":[],"categories_nodes":[],"categories_segments":[],"categories_sizes":[],"default_left":[0,0,0,0,0,0,0],"id":109,"left_children":[1,3,5,-1,-1,-1,-1],"loss_changes":[6.9644237E-1,4.3002806E0,3.1935074E0,0E0,0E0,0E0,0E0],"parents":[2147483647,0,0,1,1,2,2],"right_children":[2,4,6,-1,-1,-1,-1],"split_conditions":[1.5599159E3,1.5452335E3,4.0831085E1,-5.601095E-4,6.264086E-2,-5.1251985E-2,1.266843E-3],"split_indices":[3,4,0,0,0,0,0],"split_type":[0,0,0,0,0,0,0],"sum_hessian":[2.5572563E2,1.7383595E2,8.188968E1,1.6331152E2,1.05244255E1,1.2902321E1,6.898736E1],"tree_param":{"num_deleted":"0","num_feature":"6","num_nodes":"7","size_leaf_vector":"1"}},{"base_weights":[2.6507408E-4,1.1591962E-1,-2.19168E-2,-1.8660678E-3,9.644854E-2,-8.3486505E-2,-9.5853984E-4],"categories":[],"categories_nodes":[],"categories_segments":[],"categories_sizes":[],"default_left":[0,0,0,0,0,0,0],"id":110,"left_children":[1,3,5,-1,-1,-1,-1],"loss_changes":[6.6108006E-1,4.7537675E0,2.1596386E0,0E0,0E0,0E0,0E0],"parents":[2147483647,0,0,1,1,2,2],"right_children":[2,4,6,-1,-1,-1,-1],"split_conditions":[1.3698457E3,1.3599128E3,1.3750874E3,-1.8660678E-3,9.644854E-2,-8.3486505E-2,-9.5853984E-4],"split_indices":[4,4,4,0,0,0,0],"split_type":[0,0,0,0,0,0,0],"sum_hessian":[2.5569707E2,4.0469E1,2.1522806E2,3.5773438E1,4.695564E0,2.219284E0,2.1300877E2],"tree_param":{"num_deleted":"0","num_feature":"6","num_nodes":"7","size_leaf_vector":"1"}},{"base_weights":[2.9117108E-4,1.9141023E-1,-1.293823E-2,-1.9950427E-2,5.1544692E-2,-7.765929E-2,3.7470888E-4],"categories":[],"categories_nodes":[],"categories_segments":[],"categories_sizes":[],"default_left":[0,0,0,0,0,0,0],"id":111,"left_children":[1,3,5,-1,-1,-1,-1],"loss_changes":[6.513745E-1,2.21549E0,3.07326E0,0E0,0E0,0E0,0E0],"parents":[2147483647,0,0,1,1,2,2],"right_children":[2,4,6,-1,-1,-1,-1],"split_conditions":[1.3061256E3,2.278005E1,1.3116691E3,-1.9950427E-2,5.1544692E-2,-7.765929E-2,3.7470888E-4],"split_indices":[4,5,3,0,0,0,0],"split_type":[0,0,0,0,0,0,0],"sum_hessian":[2.5564467E2,1.5678343E1,2.3996632E2,7.280064E0,8.398279E0,4.1571717E0,2.3580916E2],"tree_param":{"num_deleted":"0","num_feature":"6","num_nodes":"7","size_leaf_vector":"1"}},{"base_weights":[8.749257E-5,1.4413683E-1,-1.6771333E-2,3.8508486E-2,-5.5835992E-2,-1.2767306E-1,-2.3093851E-5],"categories":[],"categories_nodes":[],"categories_segments":[],"categories_sizes":[],"default_left":[0,0,0,0,0,0,0],"id":112,"left_children":[1,3,5,-1,-1,-1,-1],"loss_changes":[6.25529E-1,4.783002E0,4.805367E0,0E0,0E0,0E0,0E0],"parents":[2147483647,0,0,1,1,2,2],"right_children":[2,4,6,-1,-1,-1,-1],"split_conditions":[3.7200314E1,1.5830043E3,3.7756176E1,3.8508486E-2,-5.5835992E-2,-1.2767306E-1,-2.3093851E-5],"split_indices":[0,3,0,0,0,0,0],"split_type":[0,0,0,0,0,0,0],"sum_hessian":[2.5558266E2,2.5987154E1,2.295955E2,1.968669E1,6.300465E0,1.9877875E0,2.2760771E2],"tree_param":{"num_deleted":"0","num_feature":"6","num_nodes":"7","size_leaf_vector":"1"}},{"base_weights":[-4.833459E-4,4.5117375E-2,-5.8947643E-3,-2.5713423E-2,1.4686073E-3],"categories":[],"categories_nodes":[],"categories_segments":[],"categories_sizes":[],"default_left":[0,0,0,0,0],"id":113,"left_children":[1,-1,3,-1,-1],"loss_changes":[6.294104E-1,0E0,1.3191278E0,0E0,0E0],"parents":[2147483647,0,0,2,2],"right_children":[2,-1,4,-1,-1],"split_conditions":[2.7005592E1,4.5117375E-2,-2.4796494E1,-2.5713423E-2,1.4686073E-3],"split_indices":[0,0,1,0,0],"split_type":[0,0,0,0,0],"sum_hessian":[2.5543361E2,2.0489178E0,2.5338469E2,1.8314732E1,2.3506996E2],"tree_param":{"num_deleted":"0","num_feature":"6","num_nodes":"5","size_leaf_vector":"1"}},{"base_weights":[-3.51242E-4,1.12692654E-1,-2.1365277E-2,-1.4210265E-3,1.0914173E-1,2.2418925E-3,-1.8008692E-2],"categories":[],"categories_nodes":[],"categories_segments":[],"categories_sizes":[],"default_left":[0,0,0,0,0,0,0],"id":114,"left_children":[1,3,5,-1,-1,-1,-1],"loss_changes":[6.116233E-1,5.0283265E0,1.5127534E0,0E0,0E0,0E0,0E0],"parents":[2147483647,0,0,1,1,2,2],"right_children":[2,4,6,-1,-1,-1,-1],"split_conditions":[1.3684862E3,1.3599128E3,3.1428522E1,-1.4210265E-3,1.0914173E-1,2.2418925E-3,-1.8008692E-2],"split_indices":[4,4,5,0,0,0,0],"split_type":[0,0,0,0,0,0,0],"sum_hessian":[2.5545694E2,3.9359867E1,2.1609706E2,3.5714546E1,3.6453216E0,1.7004736E2,4.604971E1],"tree_param":{"num_deleted":"0","num_feature":"6","num_nodes":"7","size_leaf_vector":"1"}},{"base_weights":[6.130373E-5,3.021532E-1,-7.8786E-3,6.5029256E-2,-6.0132086E-2,-1.3809723E-2,2.6068266E-3],"categories":[],"categories_nodes":[],"categories_segments":[],"categories_sizes":[],"default_left":[0,0,0,0,0,0,0],"id":115,"left_children":[1,3,5,-1,-1,-1,-1],"loss_changes":[6.172194E-1,2.4638596E0,1.1120187E0,0E0,0E0,0E0,0E0],"parents":[2147483647,0,0,1,1,2,2],"right_children":[2,4,6,-1,-1,-1,-1],"split_conditions":[3.0436817E1,-1.5147485E1,-1.18942995E1,6.5029256E-2,-6.0132086E-2,-1.3809723E-2,2.6068266E-3],"split_indices":[0,2,1,0,0,0,0],"split_type":[0,0,0,0,0,0,0],"sum_hessian":[2.5533446E2,5.590129E0,2.4974434E2,4.237505E0,1.3526239E0,5.1008812E1,1.9873552E2],"tree_param":{"num_deleted":"0","num_feature":"6","num_nodes":"7","size_leaf_vector":"1"}},{"base_weights":[3.691379E-5,-2.989869E-2,7.989166E-2,-8.232571E-5,-2.7030755E-2,5.8897197E-2,-6.6422895E-3],"categories":[],"categories_nodes":[],"categories_segments":[],"categories_sizes":[],"default_left":[0,0,0,0,0,0,0],"id":116,"left_children":[1,3,5,-1,-1,-1,-1],"loss_changes":[6.150427E-1,1.30785E0,5.264447E0,0E0,0E0,0E0,0E0],"parents":[2147483647,0,0,1,1,2,2],"right_children":[2,4,6,-1,-1,-1,-1],"split_conditions":[2.9238035E1,2.6863506E1,3.1428522E1,-8.232571E-5,-2.7030755E-2,5.8897197E-2,-6.6422895E-3],"split_indices":[5,5,5,0,0,0,0],"split_type":[0,0,0,0,0,0,0],"sum_hessian":[2.5528699E2,1.8613506E2,6.915193E1,1.6694757E2,1.9187485E1,1.4762514E1,5.4389416E1],"tree_param":{"num_deleted":"0","num_feature":"6","num_nodes":"7","size_leaf_vector":"1"}},{"base_weights":[1.4739203E-4,-5.199181E-2,4.684851E-3,3.2423865E-2,-6.4640667E-4],"categories":[],"categories_nodes":[],"categories_segments":[],"categories_sizes":[],"default_left":[0,0,0,0,0],"id":117,"left_children":[1,-1,3,-1,-1],"loss_changes":[6.0690224E-1,0E0,9.103286E-1,0E0,0E0],"parents":[2147483647,0,0,2,2],"right_children":[2,-1,4,-1,-1],"split_conditions":[5.3712587E0,-5.199181E-2,8.588201E0,3.2423865E-2,-6.4640667E-4],"split_indices":[5,0,5,0,0],"split_type":[0,0,0,0,0],"sum_hessian":[2.5515419E2,1.2244902E0,2.539297E2,7.6139426E0,2.4631577E2],"tree_param":{"num_deleted":"0","num_feature":"6","num_nodes":"5","size_leaf_vector":"1"}},{"base_weights":[5.6142555E-5,-4.11916E-2,5.6659844E-2,1.2430972E-2,-1.2600529E-2,8.4384345E-2,9.347791E-4],"categories":[],"categories_nodes":[],"categories_segments":[],"categories_sizes":[],"default_left":[0,0,0,0,0,0,0],"id":118,"left_children":[1,3,5,-1,-1,-1,-1],"loss_changes":[6.0026205E-1,2.1032438E0,4.0283327E0,0E0,0E0,0E0,0E0],"parents":[2147483647,0,0,1,1,2,2],"right_children":[2,4,6,-1,-1,-1,-1],"split_conditions":[2.4005018E1,1.4285211E3,2.4770039E1,1.2430972E-2,-1.2600529E-2,8.4384345E-2,9.347791E-4],"split_indices":[5,4,5,0,0,0,0],"split_type":[0,0,0,0,0,0,0],"sum_hessian":[2.5509668E2,1.4772217E2,1.07374504E2,4.9894596E1,9.7827576E1,5.1331325E0,1.0224137E2],"tree_param":{"num_deleted":"0","num_feature":"6","num_nodes":"7","size_leaf_vector":"1"}},{"base_weights":[3.8810767E-4,1.4186536E-1,-1.609888E-2,3.60806E-2,-4.9805366E-2,-1.1872163E-1,-8.245794E-5],"categories":[],"categories_nodes":[],"categories_segments":[],"categories_sizes":[],"default_left":[0,0,0,0,0,0,0],"id":119,"left_children":[1,3,5,-1,-1,-1,-1],"loss_changes":[5.994848E-1,3.9378986E0,4.1169577E0,0E0,0E0,0E0,0E0],"parents":[2147483647,0,0,1,1,2,2],"right_children":[2,4,6,-1,-1,-1,-1],"split_conditions":[3.7200314E1,1.5830043E3,3.7756176E1,3.60806E-2,-4.9805366E-2,-1.1872163E-1,-8.245794E-5],"split_indices":[0,3,0,0,0,0,0],"split_type":[0,0,0,0,0,0,0],"sum_hessian":[2.5503099E2,2.5824291E1,2.292067E2,1.956614E1,6.2581515E0,1.9631206E0,2.2724358E2],"tree_param":{"num_deleted":"0","num_feature":"6","num_nodes":"7","size_leaf_vector":"1"}},{"base_weights":[-1.6946722E-4,-3.4385344E-1,7.3083322E-3,6.6482536E-3,-7.289052E-2,4.7010254E-2,-5.161582E-4],"categories":[],"categories_nodes":[],"categories_segments":[],"categories_sizes":[],"default_left":[0,0,0,0,0,0,0],"id":120,"left_children":[1,3,5,-1,-1,-1,-1],"loss_changes":[6.600755E-1,9.1260123E-1,1.4532087E0,0E0,0E0,0E0,0E0],"parents":[2147483647,0,0,1,1,2,2],"right_children":[2,4,6,-1,-1,-1,-1],"split_conditions":[-3.539669E1,1.4457241E3,-3.073734E1,6.6482536E-3,-7.289052E-2,4.7010254E-2,-5.161582E-4],"split_indices":[2,3,1,0,0,0,0],"split_type":[0,0,0,0,0,0,0],"sum_hessian":[2.5486092E2,4.4692316E0,2.5039168E2,2.5641012E0,1.9051301E0,5.606841E0,2.4478485E2],"tree_param":{"num_deleted":"0","num_feature":"6","num_nodes":"7","size_leaf_vector":"1"}},{"base_weights":[-2.2981124E-4,-3.2465148E-1,6.7708325E-3,6.171424E-3,-6.926045E-2,4.3513566E-2,-4.6474338E-4],"categories":[],"categories_nodes":[],"categories_segments":[],"categories_sizes":[],"default_left":[0,0,0,0,0,0,0],"id":121,"left_children":[1,3,5,-1,-1,-1,-1],"loss_changes":[5.830416E-1,8.1364304E-1,1.2312983E0,0E0,0E0,0E0,0E0],"parents":[2147483647,0,0,1,1,2,2],"right_children":[2,4,6,-1,-1,-1,-1],"split_conditions":[-3.539669E1,1.4457241E3,-3.073734E1,6.171424E-3,-6.926045E-2,4.3513566E-2,-4.6474338E-4],"split_indices":[2,3,1,0,0,0,0],"split_type":[0,0,0,0,0,0,0],"sum_hessian":[2.5474745E2,4.4225907E0,2.5032486E2,2.5632987E0,1.8592919E0,5.535816E0,2.4478905E2],"tree_param":{"num_deleted":"0","num_feature":"6","num_nodes":"7","size_leaf_vector":"1"}},{"base_weights":[-2.8553305E-4,-7.459973E-2,2.9823333E-2,1.407514E-2,-2.643845E-2,6.30525E-2,6.5108156E-4],"categories":[],"categories_nodes":[],"categories_segments":[],"categories_sizes":[],"default_left":[0,0,0,0,0,0,0],"id":122,"left_children":[1,3,5,-1,-1,-1,-1],"loss_changes":[5.7421446E-1,3.0613954E0,2.5535822E0,0E0,0E0,0E0,0E0],"parents":[2147483647,0,0,1,1,2,2],"right_children":[2,4,6,-1,-1,-1,-1],"split_conditions":[-5.2021537E0,2.0671059E1,-3.7173615E0,1.407514E-2,-2.643845E-2,6.30525E-2,6.5108156E-4],"split_indices":[2,5,2,0,0,0,0],"split_type":[0,0,0,0,0,0,0],"sum_hessian":[2.5463602E2,7.299452E1,1.816415E2,3.431511E1,3.8679413E1,5.812862E0,1.7582864E2],"tree_param":{"num_deleted":"0","num_feature":"6","num_nodes":"7","size_leaf_vector":"1"}},{"base_weights":[-4.3496533E-5,5.79909E-3,-3.6946294E-1,-4.8501542E-4,3.893622E-2,-8.3773464E-2,1.618224E-2],"categories":[],"categories_nodes":[],"categories_segments":[],"categories_sizes":[],"default_left":[0,0,0,0,0,0,0],"id":123,"left_children":[1,3,5,-1,-1,-1,-1],"loss_changes":[5.538642E-1,1.0337745E0,1.1295371E0,0E0,0E0,0E0,0E0],"parents":[2147483647,0,0,1,1,2,2],"right_children":[2,4,6,-1,-1,-1,-1],"split_conditions":[1.7845543E3,1.7160145E3,2.7122509E1,-4.8501542E-4,3.893622E-2,-8.3773464E-2,1.618224E-2],"split_indices":[4,3,5,0,0,0,0],"split_type":[0,0,0,0,0,0,0],"sum_hessian":[2.5462016E2,2.5162488E2,2.9952939E0,2.4578816E2,5.8367066E0,1.2854757E0,1.709818E0],"tree_param":{"num_deleted":"0","num_feature":"6","num_nodes":"7","size_leaf_vector":"1"}},{"base_weights":[-1.6099082E-4,5.766225E-3,-3.528004E-1,-4.5377118E-4,6.5313265E-2,-6.44873E-2,7.130564E-3],"categories":[],"categories_nodes":[],"categories_segments":[],"categories_sizes":[],"default_left":[0,0,0,0,0,0,0],"id":124,"left_children":[1,3,5,-1,-1,-1,-1],"loss_changes":[5.363045E-1,1.6863745E0,5.7136506E-1,0E0,0E0,0E0,0E0],"parents":[2147483647,0,0,1,1,2,2],"right_children":[2,4,6,-1,-1,-1,-1],"split_conditions":[4.7856655E1,4.1267902E1,2.278005E1,-4.5377118E-4,6.5313265E-2,-6.44873E-2,7.130564E-3],"split_indices":[2,2,5,0,0,0,0],"split_type":[0,0,0,0,0,0,0],"sum_hessian":[2.5461086E2,2.5136945E2,3.241407E0,2.484086E2,2.9608548E0,1.6112368E0,1.63017E0],"tree_param":{"num_deleted":"0","num_feature":"6","num_nodes":"7","size_leaf_vector":"1"}},{"base_weights":[-1.1670189E-4,7.603792E-3,-2.7548525E-1,-7.195826E-4,3.8367715E-2,1.4296216E-2,-7.200266E-2],"categories":[],"categories_nodes":[],"categories_segments":[],"categories_sizes":[],"default_left":[0,0,0,0,0,0,0],"id":125,"left_children":[1,3,5,-1,-1,-1,-1],"loss_changes":[5.454392E-1,1.3918395E0,1.4044876E0,0E0,0E0,0E0,0E0],"parents":[2147483647,0,0,1,1,2,2],"right_children":[2,4,6,-1,-1,-1,-1],"split_conditions":[4.4350067E1,7.3561295E1,7.137261E1,-7.195826E-4,3.8367715E-2,1.4296216E-2,-7.200266E-2],"split_indices":[1,0,0,0,0,0,0],"split_type":[0,0,0,0,0,0,0],"sum_hessian":[2.545735E2,2.4857655E2,5.996941E0,2.4010843E2,8.468123E0,3.4385931E0,2.558348E0],"tree_param":{"num_deleted":"0","num_feature":"6","num_nodes":"7","size_leaf_vector":"1"}},{"base_weights":[-1.8641884E-4,2.181402E-1,-9.826924E-3,4.699428E-2,-3.6883317E-2,-4.210749E-2,7.3019974E-4],"categories":[],"categories_nodes":[],"categories_segments":[],"categories_sizes":[],"default_left":[0,0,0,0,0,0,0],"id":126,"left_children":[1,3,5,-1,-1,-1,-1],"loss_changes":[5.3997463E-1,1.7768514E0,1.7336977E0,0E0,0E0,0E0,0E0],"parents":[2147483647,0,0,1,1,2,2],"right_children":[2,4,6,-1,-1,-1,-1],"split_conditions":[1.2921715E3,6.949026E1,1.3116691E3,4.699428E-2,-3.6883317E-2,-4.210749E-2,7.3019974E-4],"split_indices":[4,0,3,0,0,0,0],"split_type":[0,0,0,0,0,0,0],"sum_hessian":[2.5452853E2,9.849156E0,2.4467938E2,7.031941E0,2.817216E0,8.840692E0,2.3583868E2],"tree_param":{"num_deleted":"0","num_feature":"6","num_nodes":"7","size_leaf_vector":"1"}},{"base_weights":[-2.809568E-4,2.861364E-2,-7.6203205E-2,-1.1073448E-3,6.352463E-2,-8.4485754E-2,-4.0759734E-4],"categories":[],"categories_nodes":[],"categories_segments":[],"categories_sizes":[],"default_left":[0,0,0,0,0,0,0],"id":127,"left_children":[1,3,5,-1,-1,-1,-1],"loss_changes":[5.6245136E-1,4.4782834E0,3.9149582E0,0E0,0E0,0E0,0E0],"parents":[2147483647,0,0,1,1,2,2],"right_children":[2,4,6,-1,-1,-1,-1],"split_conditions":[1.6335E1,1.6529366E1,1.722968E1,-1.1073448E-3,6.352463E-2,-8.4485754E-2,-4.0759734E-4],"split_indices":[1,2,1,0,0,0,0],"split_type":[0,0,0,0,0,0,0],"sum_hessian":[2.54395E2,1.8471793E2,6.9677086E1,1.7429683E2,1.042109E1,5.0582523E0,6.4618835E1],"tree_param":{"num_deleted":"0","num_feature":"6","num_nodes":"7","size_leaf_vector":"1"}},{"base_weights":[-3.5257518E-4,1.06453106E-1,-2.0087257E-2,-1.1460144E-3,1.0304131E-1,-5.4345876E-2,-7.223038E-4],"categories":[],"categories_nodes":[],"categories_segments":[],"categories_sizes":[],"default_left":[0,0,0,0,0,0,0],"id":128,"left_children":[1,3,5,-1,-1,-1,-1],"loss_changes":[5.4037094E-1,4.3678308E0,1.4528618E0,0E0,0E0,0E0,0E0],"parents":[2147483647,0,0,1,1,2,2],"right_children":[2,4,6,-1,-1,-1,-1],"split_conditions":[1.3684862E3,1.3599128E3,1.3761603E3,-1.1460144E-3,1.0304131E-1,-5.4345876E-2,-7.223038E-4],"split_indices":[4,4,4,0,0,0,0],"split_type":[0,0,0,0,0,0,0],"sum_hessian":[2.543557E2,3.89829E1,2.153728E2,3.5446865E1,3.5360348E0,4.177283E0,2.1119551E2],"tree_param":{"num_deleted":"0","num_feature":"6","num_nodes":"7","size_leaf_vector":"1"}},{"base_weights":[-1.1325211E-4,5.6373975E-3,-3.64669E-1,-4.1551676E-4,3.5705667E-2,-8.044523E-2,1.299582E-2],"categories":[],"categories_nodes":[],"categories_segments":[],"categories_sizes":[],"default_left":[0,0,0,0,0,0,0],"id":129,"left_children":[1,3,5,-1,-1,-1,-1],"loss_changes":[5.372054E-1,8.6967933E-1,9.7017336E-1,